9996 16
the 0.09643957 -0.02801926 -0.023480894 -0.08501456 -0.046377357 0.09188494 -0.030092653 -0.06020192 -0.02245043 0.01064902 0.034284465 0.0052582202 -0.045506027 0.07189703 0.104121186 -0.015136422
and 0.08249386 -0.05934971 -0.13768445 -0.04191427 -0.07313027 0.06572811 -0.0851435 0.01646062 -0.06511967 0.065754615 0.05966768 -0.08949145 -0.09209574 0.09807213 0.10273469 0.10520994
a 0.00943463 0.038525008 -0.07957609 -0.090685986 -0.071708016 0.11525389 0.019130386 -0.04481008 -0.011691542 0.028995767 0.035957653 0.029846005 -0.06417096 0.122740544 0.094326265 0.048399504
of 0.067623004 0.043967143 -0.009288707 -0.011173862 0.027115492 0.021135686 0.02162552 -0.065774865 0.000116798205 -0.0095859 -0.022556476 -0.0072037214 -0.015240492 0.068007775 0.056342077 0.010227311
to 0.05099587 0.06497219 0.06267516 0.03388537 0.02171772 0.033824157 0.06683291 0.019335093 0.034358695 -0.034865793 -0.10436188 0.02662692 0.043680392 -0.043232106 -0.01181683 -0.072444454
is 0.07496139 -0.036212433 -0.09403433 0.013289866 -0.06702157 0.07869891 -0.027795779 0.048199296 -0.04563306 0.084341094 -0.003220673 0.0048227273 -0.024692276 0.08301356 0.082969286 0.009641677
br -0.06852142 0.040277176 0.018055283 0.0019137628 0.048452012 0.011009649 0.037469044 0.027430426 0.02915854 0.015710061 -0.05112074 0.045529567 -0.011367286 -0.04923525 -0.025982555 -0.059766676
in 0.028452333 -0.029757233 -0.0736957 -0.046741012 -0.011861204 0.07492945 0.014200243 0.009191542 -0.07450349 -0.0011536789 -0.06316852 0.01967154 -0.05505695 0.009555555 0.018611157 0.06054083
it 0.017381689 -0.0017377968 -0.03978033 -0.03641479 0.018715814 0.011917502 -0.0007143608 0.023910178 -0.01385561 -0.03365196 0.026081214 -0.006129228 -0.0146151455 0.022342019 0.0370117 -0.054244258
i -0.0047067045 0.061227243 -0.019481441 0.04191809 0.063965686 0.020305527 0.028284278 0.020927802 0.059549022 -0.038162097 0.008245289 0.055240665 -0.026816668 -0.020149935 -0.030741958 -0.0020213558
this 0.018789494 0.05095062 0.02528888 0.0485394 0.09182197 -0.0032616027 0.057309262 0.064484194 0.024500715 -0.035770517 -0.10002943 0.07288558 0.013012395 -0.087298945 -0.045135953 -0.07436847
that -0.021609265 0.01779297 0.057943504 0.08371792 0.0009475364 0.034258395 -0.0141768195 0.08443197 -0.008442289 -0.07015273 -0.03157441 -0.019970257 -0.0024098086 0.030592762 -0.04055116 0.00749431
was -0.020929921 0.01317394 0.044280402 -0.026450507 0.032937154 -0.0031805155 0.039125785 0.00808133 0.047013987 -0.082919136 -0.05874435 -0.03974311 0.076313816 -0.003487967 -0.009932427 -0.042216297
as -0.025457866 -0.0076783 -0.019378822 -0.039367773 0.060819976 0.007817442 -0.0025181167 -0.0299682 0.008978695 -0.034847796 -0.040236406 -0.03139061 -0.016975947 0.020382417 -0.033337303 0.0038654404
for -0.007308546 -0.005047827 0.00071313936 -0.034867074 -0.040170748 0.02496256 0.040020708 0.007949691 0.016379097 0.028309243 0.0073743328 -0.04272689 -0.063203365 0.04431585 0.082065135 0.0063516595
with 0.0023145578 0.040421132 0.00023847382 0.03285816 0.014172714 -0.05071344 -0.04651775 0.09976642 -0.0055916947 -0.049024988 -0.023437215 0.06508438 -0.06931975 0.02644876 -0.055860534 0.022260077
movie 0.047278386 0.08342297 0.042767093 0.031650186 0.008882355 -0.0050684456 0.03251627 -0.0061946153 0.043652344 -0.07286822 -0.08541151 -0.040248692 -0.018746892 -0.033660572 -0.0024224436 -0.008902838
but 0.07786754 0.007922615 -0.13202809 -0.115425155 -0.13449322 0.12798384 -0.049683433 -0.118044645 -0.06051206 0.07096375 0.09542256 -0.069088794 -0.021254616 0.08408515 0.10511135 0.05488483
film 0.038721282 0.024032675 0.039870877 -0.06188794 0.011281411 -0.0020606176 0.012741231 -0.07148847 -0.00096887356 0.004801423 0.0247376 0.043495577 -0.013172957 0.028924562 -0.008683445 -0.02023061
on 0.009228711 -0.0483879 -0.046849 0.010587089 -0.002296877 0.03322289 0.014349128 0.05459956 0.014502771 -0.054018132 -0.09107602 -0.007935995 0.029610043 -0.016323227 -0.03316546 0.022210814
not 0.024427721 -0.039478213 0.055858273 0.068156235 0.11590109 0.0183761 0.005531813 0.089875504 -0.019894496 -0.06620037 -0.044459336 -0.038869683 0.019794837 0.0026960734 -0.00366155 -0.031658556
you -0.010990195 0.0038702926 -0.11957232 0.024817638 -0.14770779 0.09346769 -0.07629419 -0.057335034 -0.024209306 0.048819456 0.12285125 0.021546898 -0.037988268 0.09198301 0.08284552 0.11592278
are -0.024436347 0.07190635 0.014670624 -0.02962562 0.039080393 0.008406653 0.007754153 0.008140602 -0.019838663 -0.022316216 -0.006911434 0.0053357487 -0.029178288 0.04519701 0.04965929 -0.0034299775
his 0.080861636 -0.0039544515 -0.054876152 -0.019084344 -0.08265417 0.038926378 -0.0032989054 -0.049044613 -0.07386813 0.08471195 0.075064756 -0.09301111 -0.023898622 0.09642202 0.056357853 0.076159075
have -0.056002483 -0.0032035802 0.0006389136 0.016460616 0.019192444 -0.036270257 -0.032122105 0.07181998 0.02322759 -0.0093493555 -0.07283926 0.02826525 0.022434061 -0.041967418 -0.0037296824 0.006185674
he 0.032286663 0.044872683 -0.016956273 0.08963659 -0.025623234 0.023616565 0.053794596 0.029597824 -0.026874855 -0.056158513 -0.062005658 -0.015958758 0.009209963 0.034855794 -0.072900295 0.02114448
be -0.03380385 0.048441418 0.045848124 -0.018755972 -0.02515181 -0.041830827 0.021216804 0.03634706 0.05475079 -0.028296132 -0.05925235 -0.034566756 0.01890529 -0.0176665 -0.025036732 -0.026658755
one 0.017183505 0.07608663 0.020399231 -0.004538688 0.010642155 0.085459694 -0.009161434 -0.0070229783 0.009147792 -0.03368809 -0.04778168 -0.033529278 0.007603023 0.052940898 0.0253979 -0.023613516
all 0.08344297 0.0010658375 -0.103024654 -0.0036874043 -0.062830545 0.03385382 -0.0105539905 -0.026826782 -0.086994074 0.08048049 0.019278748 -0.016965864 -0.08487271 0.028164942 0.08750947 0.020218449
at -0.031762578 0.009573524 0.037816294 0.04831145 0.011615735 -0.010377402 0.052020527 0.05371551 -0.0047563105 0.0010187073 0.0054715606 0.05377335 -0.008371424 -0.012138143 -0.020060984 -0.009478057
by -0.032733243 -0.0058244565 -0.00869244 -0.07820334 -0.04726435 -0.023364214 0.006628047 -0.017471356 -0.05535007 0.02246388 0.010333109 0.03261351 0.013173166 -0.0077762743 0.053785868 -0.0022772066
an 0.024733523 0.003503663 -0.026675578 0.007717319 -0.013962988 0.015558814 -0.015702548 0.031086547 -0.006201951 -0.035315964 -0.054408368 0.013487286 -0.020835064 -0.018628955 -0.02249712 0.050365865
they 0.00051187543 0.059365835 -0.0038669603 0.021641407 -0.012143177 0.0127501795 0.05223181 -0.018741382 -0.019264156 0.041509453 -0.057156164 0.05040727 0.04279855 0.009477336 0.014077575 -0.044058938
who 0.022835903 -0.064681105 -0.050977908 0.0113663515 -0.0025130261 0.010151836 -0.015521464 0.028684631 -0.020450808 0.017412048 -0.037359882 0.027223915 -0.028568929 0.0043554115 -0.00053261296 0.002178323
so -0.10853994 0.04757685 0.08220154 0.058609016 0.07543407 -0.08357291 5.9751477e-05 -0.007956034 0.05608273 -0.041300457 0.008355669 0.06334725 0.022405228 -0.039176356 -0.037414394 -0.057592396
from -0.07101132 0.0391948 0.01458231 0.08005754 0.031142415 -0.08465483 -0.043038394 0.08669005 0.027646603 -0.12575653 -0.04509992 0.024719637 0.046101134 -0.04756431 -0.067914695 -0.025106609
like 0.03120809 0.0006272331 -0.06403474 -0.010923763 -0.0910935 0.11014131 0.035184875 -0.054376062 -0.059656486 0.11530374 0.015417787 0.027283298 -0.00037060902 0.11928999 0.13156296 0.035323933
her 0.0069572767 -0.006545801 -0.035253253 0.058460828 -0.03720733 0.062797405 -0.07972284 -0.013614522 0.00997413 0.012962755 -0.021472514 -0.04432404 -0.0093437955 0.0042372537 -0.03428871 0.023950398
or -0.048278652 0.027507273 0.021210028 -0.011059197 0.060887042 -0.044487905 0.077866524 0.052321322 0.07965022 0.006636257 -0.07966625 0.105775446 0.042017736 -0.051566556 -0.020907108 -0.021467904
just -0.024512079 0.09681394 0.07383378 0.0032128072 0.07503593 -0.033311997 -0.0073039676 0.022001624 0.0751989 0.017880784 -0.042276736 0.05364484 -0.0036175011 0.0018324557 0.006974983 -0.055660296
about -0.062224567 0.02157544 0.0027062267 0.039956227 0.06122294 -0.03214988 -0.0037402632 0.014967763 0.0966999 -0.032860555 -0.060170304 0.00585849 -0.008645708 -0.08007188 -0.076522 -0.044231847
it's -0.08734109 0.022572326 0.054627806 0.042345423 0.15074788 -0.052665703 -0.037077002 0.058443487 -0.011433203 -0.16455375 -0.10002565 -0.012379853 0.037561316 -0.1255035 -0.11857908 -0.016597057
out -0.027489187 0.09629954 0.10550906 0.074700296 0.13190545 -0.027841382 0.0671161 0.07943475 0.07953451 -0.10033963 -0.10415062 -0.057897195 0.075610586 -0.022354133 -0.09122329 -0.077388525
has -0.0053037684 0.013813761 0.0031685624 0.005442481 0.036848668 -0.062967055 0.0065982877 0.032258037 0.068079464 -0.12280699 -0.10961478 0.04657455 0.04635401 -0.03831426 -0.08537158 -0.015642025
if 0.04963453 0.018499251 -0.05754152 -0.05013413 -0.04140512 -7.0536305e-05 0.019482747 0.015170286 0.0089943325 0.05497637 0.014155883 -0.0023994946 -0.03750258 0.052536726 0.07998648 -0.011746898
some -0.09716721 0.077346325 0.13677274 0.17190123 0.19681661 -0.048927657 0.041629653 0.05422315 0.04889168 -0.15970811 -0.17946327 0.031237844 0.10754591 -0.13228552 -0.16550057 -0.080422275
there -0.01641083 0.04601654 0.1153596 0.027636116 0.06567783 -0.010917022 0.07724302 -0.021459078 0.07341923 -0.049460784 -0.13915887 0.039269146 0.034541707 -0.039881438 -0.07700844 -0.098010294
what 0.0701702 0.003899539 -0.023462571 0.053857587 -0.04581126 0.06424126 -0.03245932 -0.010465016 -0.047381558 0.018605378 0.0446209 -0.07797126 -0.02134502 0.099713184 0.054041713 0.04333117
good 0.0020460745 0.02064901 -0.03948546 -0.04154013 -0.023264239 0.08142862 -0.01867089 0.022530884 -0.020445427 -0.0246947 -0.016064133 -0.0919138 0.015266737 0.017032074 -0.01440015 -0.019584626
more 0.050942443 -0.007176248 -0.030844256 0.0688213 -0.028367758 0.071130894 -0.036943484 0.016829628 0.036101226 -0.01259417 0.0034967407 0.012406387 0.020710453 -0.0128877405 0.027252695 -0.023697555
when 0.08849758 0.013217521 0.01568161 -0.028896559 0.00376826 0.028204357 0.009260449 0.016991105 -0.0053522536 0.03875456 0.03573318 -0.025447987 -0.0097733885 0.083909884 0.039850272 0.014813379
very 0.015141829 -0.03055865 0.031909008 0.10521264 0.020630237 0.039914094 -0.01862667 0.03216709 -0.063187756 -0.14306462 -0.105724365 -0.03692319 -0.08003341 -0.030995654 -0.046427652 0.06513339
up -0.0344769 0.05793915 -0.009506477 -0.024487006 0.025740778 -0.040279288 0.07098383 -0.073331565 0.01122505 -0.010665014 -0.04540546 0.046075106 0.037357137 -0.023647472 0.032785293 -0.08220438
no -0.092445984 0.045278206 0.037663825 0.012401584 0.030163819 -0.060168102 0.018123494 0.080937654 0.068257235 -0.052463755 -0.008620718 0.083607085 0.0398206 -0.09945708 -0.018839026 -0.058739726
time -0.01525126 0.015082711 0.085529976 0.045646835 0.118483506 -0.028856628 0.006413614 0.053126168 0.022765527 -0.06454747 -0.03655744 0.014316676 0.06387606 -0.021920856 -0.09153986 -0.057978045
she 0.08620031 -0.02061739 -0.08642622 0.038593005 -0.09097095 0.058215827 -0.04980605 0.01921817 -0.03282352 0.010963454 -0.034717035 -0.0030615102 -0.019008782 0.03792844 0.083106294 0.03932889
even -0.00027624148 -0.06398671 -0.0030491264 0.06219296 -0.016515614 -0.023380335 -0.07345112 0.08695152 -0.042136826 -0.0016589959 -0.000103498794 -0.027229788 -0.006250439 -0.018605312 0.018092265 0.06621084
my 0.07751207 -0.03107962 -0.08232913 -0.027288415 -0.031643398 0.08144 0.011996484 -0.03125031 0.005467802 0.043735027 0.048700493 0.048678283 -0.08151997 0.032465626 0.11185482 -0.00606076
would 0.0025308407 -0.026880156 -0.09225522 -0.037508685 -0.046473738 0.0011949092 0.014689847 -0.056826826 -0.014195907 0.08833853 0.066459276 -0.03818103 -0.010463348 0.05117962 0.013125576 -0.028293675
which -0.0069430824 -0.0112246545 -0.022100313 0.05429333 0.019123465 0.030934323 -0.01373729 0.080673456 0.027996128 -0.07843177 -0.07608575 0.047992036 -0.006038884 0.027115097 0.006509886 0.008554227
only -0.059575632 0.04555819 0.06388148 -0.09783978 0.0024268501 -0.024559863 0.046962906 -0.04863705 0.04060125 0.039252896 0.025535164 0.06293604 0.006909686 -0.044280503 0.057455875 -0.07464802
story 0.06790317 0.009869546 -0.02548005 0.013135403 0.0021946866 0.014975965 -0.020418156 0.050735723 0.0041047903 0.03748469 0.021035997 -0.07064905 0.0016919129 0.015877947 0.053306192 0.043226294
really 0.007997554 0.08610431 0.08663156 0.0064342376 0.058990154 -0.064547405 0.025980867 0.007824252 0.0624867 -0.051804136 -0.07920548 -0.03209446 0.011730388 -0.09148259 -0.0244593 -0.09000598
see 0.013968475 0.03616095 0.015316851 0.027599756 -0.013572812 0.042881314 -0.009780373 -0.046133544 0.0042311796 0.059308056 -0.009205164 0.0051403977 -0.0326544 -0.0028096265 0.03295201 -0.023943279
their 0.00453524 -0.056581885 -0.11000399 -0.048978187 -0.041899417 0.10400437 -0.042227738 -0.052542504 -0.018868357 0.059303258 0.035055313 -0.04934127 -0.054656312 0.0889481 0.032397363 0.012109809
had -0.0024500624 0.0355756 -0.00030939488 -0.030850621 -0.08528185 0.04993727 -0.034381177 -0.1041447 -0.03870221 0.028461894 0.037300754 0.080147654 0.028494928 0.03958388 0.05764907 -0.048203487
can -0.028050685 0.061373223 0.07997788 0.036013447 -0.012078672 -0.017599981 0.026009459 0.018988825 0.08332792 -0.03369269 -0.05292042 0.06365878 0.015606892 -0.0103027625 -0.011806104 -0.00139561
were -0.069291465 0.06688538 0.015881032 0.031334244 0.021176822 -0.056565024 -0.017010203 0.012344874 0.027702421 -0.069939345 -0.09022849 0.009469966 -0.016908363 -0.057783876 -0.0492358 0.0026139296
me 0.03754992 -0.018121084 0.067926355 0.09191254 0.005101105 -0.012038848 -0.04725684 0.03654 -0.003324428 -0.083853304 -0.032613125 -0.051386032 0.03678631 -0.07033241 -0.0845681 -0.051717285
well 0.08784794 -0.063861616 -0.10907771 -0.048345163 -0.16306919 0.11143424 -0.024261989 -0.15650123 -0.08227133 0.1074776 0.044895906 0.0398875 -0.14853157 0.16422468 0.17224085 0.08167411
than 0.02111732 0.08898787 0.015012451 0.035234246 -0.00015768051 -0.027693922 0.06471763 0.0026795878 0.08793556 -0.05381988 -0.040556837 0.04267005 -0.027021935 -0.04524917 -0.008249401 -0.027813518
we 0.06600662 0.013239615 -0.07828377 -0.035712097 -0.022191504 0.01186266 -0.022527121 0.0057563917 -0.04844918 0.014118233 -0.020862974 -0.07091489 -0.02898997 0.08722385 0.00062057795 0.029951904
much -0.035331108 0.08161763 -0.0142007 -0.055319678 -0.074638896 -0.013206459 -0.012945441 -0.044804573 -0.010879061 -0.016996771 -0.0054471884 0.105368584 0.016710322 0.022296116 0.00063063495 -0.016935822
been -0.009966265 0.038227826 -0.061347533 -0.046770833 -0.0750483 0.0020598304 -0.011925458 0.01334364 -0.05326644 0.016815873 0.046530414 -0.026757622 -0.016869556 -0.022518968 0.022150462 0.0561681
bad -0.12491119 0.11008845 0.22392972 0.10650552 0.21217528 -0.17223784 0.07238986 0.034232743 0.20545718 -0.16012655 -0.095549464 0.12026952 0.20920335 -0.23687752 -0.17743912 -0.15827513
get -0.09778275 0.11347941 0.026285948 -0.029383289 -0.012685657 -0.024069007 0.024207657 0.011911867 0.043641113 0.026009178 0.04382642 0.10343562 0.09158981 0.016255049 0.08546733 -0.045244444
will -0.008378554 0.033630893 -0.018212559 -0.0026574857 -0.05270822 0.011686242 -0.030838486 -0.0067122593 -0.04684379 0.051817257 0.02524171 0.051086325 -0.02704729 0.050005432 0.09673706 0.03335307
do -0.013834796 0.017987944 -0.0631034 -0.06638181 0.001547453 -0.022460744 0.039413627 -0.062090278 -0.027849294 0.019654902 -0.015455919 -0.024138499 0.04642378 -0.0018861915 0.03608156 -0.049334444
also 0.108664885 -0.04040783 -0.103221714 -0.05424627 -0.10029071 0.09003424 -0.080426045 -0.067297 -0.12718813 0.14416052 0.08570208 -0.05142326 -0.1410787 0.11422019 0.15019847 0.11383755
into -0.06279318 0.10101242 0.0032527149 0.032096993 -0.011150465 0.014582167 0.07587261 -0.05444161 0.00520986 -0.09409874 -0.0859428 -0.042056613 0.044026837 -0.031845275 -0.110669866 -0.11409439
people 0.044719733 0.010913634 -0.08500216 0.011552243 -0.102061264 0.031709652 0.00091074855 0.052206066 0.033393558 0.06327882 0.05055261 0.024698643 -0.000842247 0.009276317 0.03049502 -0.065054454
other 0.018821355 0.020126186 -0.03246486 0.02397769 -0.058974903 0.04352675 0.013308428 0.025975714 -0.044803683 -0.008962637 -0.011406347 0.047233365 -0.038926236 0.012874966 0.068133526 0.03149582
first -0.0028454484 -0.03339216 -0.035414718 -0.041701186 -0.039672673 -0.01942762 -0.009888031 0.004602359 -0.0481362 -0.028454747 0.011534313 0.004253707 -0.019865805 0.048285093 -0.036938284 0.021497242
great 0.07796771 -0.07579275 -0.05289558 0.07508875 -0.028814172 0.083311595 -0.08536012 0.048313916 -0.13382043 0.014984197 0.03747438 -0.1431419 -0.02392831 0.03752689 0.03531034 0.051923916
because -0.11732816 0.011893019 0.18022428 0.0718588 0.23723944 -0.13007931 0.048688103 0.13911255 0.092582196 -0.15318988 -0.15453334 0.06582518 0.02599137 -0.12933235 -0.117737874 -0.03296761
how -0.018501982 0.07883573 0.04942651 -0.011310907 0.0204268 0.038077075 -0.030743888 0.004868481 0.020116203 -0.06455369 0.008709575 0.07203985 0.01207985 -0.004307092 -0.077987544 -0.0100433165
him 0.03884613 -0.013243108 -0.070220046 -0.055381276 -0.17721471 0.11588925 -0.009819688 -0.11260053 -0.07443828 0.10536879 0.17035148 -0.024314823 -0.060752317 0.09726621 0.08644961 0.008874654
most 0.00715426 0.0015984533 -0.09395846 -0.13846752 -0.06951834 0.082064226 -0.03102605 -0.06854652 -0.02409772 0.070392706 0.04139479 -0.010633832 -0.057791572 0.10130887 0.07679445 0.08102803
don't 0.007601598 0.015841763 -0.03235991 0.004137889 -0.016480383 -0.02757366 -0.026654825 0.034476895 -0.010253842 0.0025109597 -0.060086057 0.06067144 -0.04413718 -0.016634153 0.011178223 -0.027200107
made -0.015337954 -0.028228452 -0.06621232 -0.016537664 -0.05278283 0.07014259 -0.036102768 0.06061579 -0.031380057 0.086195454 0.04237235 -0.04556848 -9.498622e-05 0.06809136 0.061832275 0.035677616
its 0.071281195 -0.020825936 -0.11998132 -0.15082222 -0.20786285 0.08858457 -0.0014178914 -0.22115748 -0.08736646 0.17443633 0.22340156 -0.025396712 -0.14283705 0.17772567 0.13779463 0.08970366
then -0.067898974 0.02836927 0.040327515 -0.0021092792 -0.046763003 -0.07077708 0.003976445 0.0070585622 0.02467667 0.0068459474 -0.036785156 -0.001254656 0.08055691 0.004224939 -0.05884288 -0.06660754
way 0.05091572 0.013812386 0.063106075 0.092255525 0.06650533 0.0060879304 -0.0688691 0.07588669 -0.01832017 -0.01564235 -0.10654377 0.032637455 -0.023291681 -0.049560785 -0.08961675 0.015705297
make -0.025028585 0.05548796 0.01708391 0.15012325 0.11280101 -0.0014676371 0.05668862 0.11171685 0.00090004 -0.08568572 -0.13217685 -0.0028632004 0.045081615 -0.09582625 -0.035868336 -0.08002268
them -0.019543882 -0.036959395 -0.08031755 -0.066909276 -0.064265914 0.049043898 -0.011318723 -0.09750496 -0.0011720222 0.04982483 0.10018852 -0.01675608 -0.044539817 0.01869679 0.11682283 0.030746318
too 0.07497273 0.047699057 -0.05703184 -0.12943482 -0.09456379 0.02709092 0.008465723 -0.060629595 0.0017212827 0.10499228 0.02242392 0.02464602 -0.0178482 -0.0007894343 0.015856404 -0.014291569
could 0.0371286 0.010828453 -0.023949938 -0.024820901 -0.04550094 -0.01415105 0.028311428 0.013754976 0.050234277 -0.008987969 -0.0089852605 0.053842474 0.02084536 0.03142246 -0.013914541 -0.024573108
any -0.06459231 0.08672388 0.06578603 0.006014161 0.16114074 -0.12045162 0.037094895 0.020657524 0.117259234 -0.14992127 -0.056890935 0.070550434 0.070482016 -0.05950318 -0.15026194 -0.11283199
movies 0.054424655 0.011155847 0.008642434 -0.008909019 -0.0027513725 0.009192139 0.017434442 0.01307126 0.052641187 -0.0023481245 -0.09059307 -0.052616153 -0.012939048 0.05046744 0.027008241 0.021162668
after 0.017440986 0.059818227 -0.04238964 -0.10415569 -0.082496114 -0.0008087331 0.06221474 -0.085257374 0.00901847 0.112872146 0.019869398 0.061654985 -0.02194603 -0.005832305 0.052091777 -0.015700296
think 0.044547163 0.029881904 -0.04096018 0.03675825 -0.018852644 0.060979784 0.00040840963 -0.025080916 0.0071187 -0.002913557 -0.024865858 -0.022691451 -0.043961946 0.003127466 0.06481599 0.014458686
characters 0.04769173 -0.06308072 -0.08195344 -0.060569234 -0.072059736 0.061451193 -0.056278024 0.021415044 -0.029491596 0.12685916 0.057226203 -0.028624654 -0.057243165 0.06087838 0.042672426 0.038352806
watch 0.019323854 0.050859712 -0.018790927 -0.057889853 -0.062331434 0.030296437 -0.01425298 -0.06591032 0.016182883 0.011614553 -0.004993218 -0.03698422 0.008261589 0.061002612 0.023184136 0.010526026
two 0.011435029 0.028816618 -0.03059633 -0.0020724714 0.05697639 0.00760055 0.023235768 0.018636364 0.015097812 -0.01750535 0.023836158 0.055284284 -0.0125104515 -0.027960323 -0.02842899 -0.052488994
films 0.06699982 -0.041137416 -0.07826528 -0.08681596 -0.057423018 0.031806592 0.0013348777 -0.04777809 -0.046265244 0.10555467 0.0041866987 0.0025919895 -0.10044962 0.079158604 0.025940865 0.03460195
character 0.0018307649 -0.00097082136 0.020355504 -0.0033644177 0.015653534 0.0037708785 0.036332007 0.0498099 0.051695243 -0.061541785 -0.085616134 -0.055648744 -0.025797395 -0.04190757 -0.015413564 -0.06019202
seen 0.036780447 0.02228979 -0.020433627 0.017901989 0.051456872 0.02116219 0.044584073 0.016959785 0.022929775 -0.03029597 -0.05498049 0.026984936 0.006163217 0.03306 -0.051882014 -0.044537302
many -0.059130173 0.044825718 0.04799434 0.01277099 -0.034820613 0.030503524 0.06814973 -0.026466988 0.019979505 0.0020065315 -0.062487908 0.032454006 0.0545146 0.016195374 0.034552343 0.01212884
being -0.03733376 0.07037795 0.04402344 0.101454094 0.11697128 -0.01595101 0.0711432 0.08489257 0.04794464 -0.10204996 -0.0540627 0.022150086 0.067838825 -0.033229046 -0.22193278 -0.05555023
life 0.074241154 -0.044996995 -0.07360115 -0.09032 -0.13495126 0.06419055 -0.008436193 -0.06274938 -0.0834056 0.14015718 0.13271895 -0.04409556 -0.053908378 0.08299992 0.06765556 0.008196069
plot -0.0654038 -0.011360763 0.05238159 0.01017463 0.10097868 -0.06305973 0.06185895 0.033734236 0.049746975 0.017918255 -0.027050085 0.048702348 0.071518555 -0.0472975 -0.031026762 -0.01122533
never 0.0092610605 -0.048880897 0.013397113 0.09094389 0.14522599 0.011716514 0.01828545 0.05060271 0.0364417 -0.06405579 -0.028390158 -0.04281603 0.060580075 -0.06694073 -0.09361899 -0.022560164
acting -0.052386086 0.056305293 0.06305699 0.018112939 0.017222634 -0.029547278 0.029031381 0.042602062 0.113635816 -0.04432261 -0.030510444 0.09050686 0.05580526 -0.033342544 -0.04438709 -0.05020992
little 0.0077816993 -0.014599265 -0.04137899 -0.07491851 -0.060975816 0.03238544 -0.09013898 -0.11432035 -0.028915143 0.09288891 0.00041676936 -0.039539337 -0.063974604 0.04413609 0.047630135 0.07738311
best 0.19070563 -0.08802726 -0.108805545 -0.07739643 -0.18082881 0.17500782 -0.105895445 -0.04451323 -0.14546162 0.15573387 0.06230115 -0.116393015 -0.16415417 0.12409 0.17725703 0.11802998
love 0.12836412 -0.013886319 -0.10301332 0.061646596 -0.09565582 0.051016066 -0.046402883 0.07728643 -0.10304316 -0.0018271045 -0.021853292 -0.08818431 -0.028120123 0.08093068 0.010183348 0.03721021
over -0.04856609 0.08240922 0.047498852 -0.06692622 0.012154777 -0.10197858 0.0024814545 0.013390641 0.09921945 0.038862836 -0.014047774 0.13283484 0.033046577 0.0318708 0.008324384 -0.06535487
where -0.012102205 0.032194395 -0.019280093 0.05448071 0.033245873 0.034576673 -0.053015836 0.033079155 0.0157736 -0.062411606 -0.04816437 -0.021332595 -0.034545183 0.011450077 -0.011482001 0.024157928
did 0.054060977 0.044302877 -0.037519455 -0.09343922 -0.054303274 -0.016079817 -0.01983758 -0.023740385 -0.042937573 0.057909913 0.09548576 0.0757457 -0.08405636 0.020577798 0.019061456 0.026748862
show 0.03366136 -0.026515108 -0.077451274 -0.020874158 -0.0651686 0.0642696 -0.054725934 0.0062995553 -0.06816872 0.033257335 -0.00074857497 -0.026860427 0.016751844 0.07326404 0.027728522 -0.0049227974
know 0.0053339107 0.03550837 0.012309563 -0.014324091 0.045361824 0.012594299 0.02616358 -0.015061533 0.046518147 0.006923045 -0.033121493 0.05021816 0.007096303 0.009438531 -0.027673293 -0.008242149
off -0.028548015 0.094757736 -0.021295948 -0.07449496 0.018415015 -0.08362786 0.047226306 0.02945432 0.017870639 0.03558079 -0.007328244 0.073312715 0.057560015 -0.023482034 -0.028145794 -0.01931273
ever 0.013142391 -0.006535284 0.037835687 -0.022513935 0.029753529 0.02640192 0.0805702 0.021007366 0.032960072 -0.08842117 -0.016312515 0.04667714 -0.013291111 -0.03596294 -0.13252349 -0.070778124
does 0.09735375 -0.08308571 -0.10827178 -0.03122991 -0.0867702 0.10344232 -0.088893816 -0.040070463 -0.09298248 0.03482847 -0.04492963 -0.08139389 -0.04752929 0.06609333 0.05096148 0.012957947
better 0.021222128 0.027653787 0.012539686 -0.009713369 0.0027248191 -0.027942797 -0.019621575 -0.023544936 -0.041696314 0.03594671 -0.0013028174 -0.047489148 -0.022705825 -0.00069628184 0.015023123 0.046273146
your -0.03060156 -0.017548997 0.024509912 0.05846365 0.06978167 0.01890454 0.01190629 0.043501887 0.06941796 0.026883315 -0.06826115 0.051209796 0.0038160942 -0.029759252 -0.022755098 -0.03826972
end -0.0072208806 0.0051084626 -0.0023529984 -0.07873974 -0.0552059 -0.015464472 0.055868205 -0.034475554 0.015311554 0.014574887 0.031755053 0.044646084 -0.027510224 0.018074706 0.0024347429 -0.052057315
still 0.0843495 -0.07779947 -0.07753215 0.045345347 0.018482955 0.0740785 -0.12413398 0.07018079 -0.099861644 0.019674242 -0.003878719 -0.095190376 -0.10488273 0.0027365952 -0.016839841 0.095159784
man 0.08799898 -0.06965499 -0.045652468 -0.019487983 -0.0422741 0.043453034 -0.01302548 -0.0683371 -0.08071107 0.094429545 0.001319033 -0.0077055003 -0.023492135 0.098749354 0.01092016 0.04919361
here -0.07912099 0.07467767 0.060859066 0.082531534 0.15583156 -0.10619186 0.069571376 0.1195856 0.06247516 -0.09907376 -0.15222803 0.0010996982 0.07653662 -0.10822096 -0.111570664 -0.07296296
these 0.08307292 -0.035927147 -0.045734666 0.03774365 0.010030935 0.0106343515 -0.027092177 0.0011154675 0.019788807 0.023500055 -0.059405845 -0.0003320894 0.0051161093 0.05818012 -0.028556298 -0.022098728
say -0.08932535 0.029589463 0.059573673 0.05208241 0.16044603 -0.09652715 -0.026814226 0.027873406 0.09183689 -0.014932305 -0.073595084 0.036866654 0.084314734 -0.08166704 -0.062132478 -0.021156318
scene -0.08058463 0.031947434 0.053126246 0.07481987 0.017794628 -0.06761267 0.06237296 0.067686945 0.0953276 -0.09498502 -0.10132015 -0.020606788 0.026019538 -0.04575202 -0.06390902 -0.021562641
while 0.03678597 0.0069233323 -0.0006985095 -0.07083252 0.029858364 0.002274442 0.06502213 -0.016504865 0.049798235 0.072663434 -0.011577511 0.029867047 -0.02162837 -0.015410446 0.061649032 0.037654392
why -0.03532535 -0.0034527548 0.080575906 -0.010941296 0.035513863 0.01665104 -0.0041781957 -0.00366103 0.09243764 0.060794692 0.032859556 0.035066728 0.058755696 -0.0701652 0.042727955 -0.048605047
scenes 0.021098383 -0.01638612 -0.0037568216 0.012271303 0.030104622 0.0020072344 0.0053286226 0.07244526 -0.0019094404 -0.06651289 0.0032973052 -0.06961307 -0.026060782 -0.01610742 0.0005171249 0.035700038
go 0.023434171 0.015327224 0.07120539 0.06534713 0.019889954 -0.0059034377 0.0028399157 0.014170337 0.040718712 -0.08308103 -0.1219323 -0.018225493 0.026911719 -0.02830162 -0.07752082 0.009386435
such 0.016844176 -0.028342707 -0.019335529 0.053145688 -0.065740444 0.06287391 0.0023879416 0.03306586 -0.03378854 -0.017816046 -0.01628947 0.043110523 -0.07929671 0.010364891 0.0042337505 0.07848263
something -0.13718021 0.016929846 0.1635261 0.22069058 0.22894393 -0.18880099 0.09289555 0.1812544 0.10666471 -0.15463817 -0.22239615 -0.017816814 0.11377266 -0.15593663 -0.18178712 -0.011995118
through 0.026157876 -0.0044794795 0.028610153 -0.0350752 -0.014805882 0.04611255 0.061208606 -0.009854972 -0.04105277 0.01247814 0.08693379 0.06799968 -0.057804268 0.04558223 0.025391992 -0.026960531
should -0.05284565 0.010015146 0.049002226 0.05131533 0.057793543 -0.0034946187 -0.0069216033 0.1234847 0.035584047 -0.021598207 -0.043094125 0.077427976 -0.0501921 0.0004358674 -0.038954645 0.03360521
back 0.040275827 -0.022651369 0.004724042 0.034155075 0.0133640785 0.06065572 0.027462823 0.0974866 -0.05067415 -0.106166184 -0.14131355 -0.017255489 0.0383406 0.023950173 -0.07826442 0.03301726
i'm -0.034656722 0.07007067 0.108631834 0.04917994 0.15064079 -0.046868045 0.09229929 -0.049541533 0.10946032 -0.074265406 -0.027519347 0.06909915 0.09433828 -0.07693994 -0.06308403 -0.094962336
real 0.07180319 0.043799542 -0.052068636 -0.053958945 -0.062055606 0.047873907 -0.020675644 -0.025922228 0.0032645906 0.06527179 0.059610948 0.079509124 0.007309774 0.012234537 0.027408695 0.016519811
those 0.012308165 -0.00014311813 0.0153686125 0.059569255 0.016190918 0.008421473 0.024750346 0.080868155 -0.0002837441 -0.023201004 -0.02000247 -0.056483533 0.032148752 0.026322491 -0.03302841 -0.015300963
watching -0.00648653 -0.010042162 0.046086486 0.093158774 0.081068516 0.022210484 -0.021545634 0.02713309 -0.013905704 -0.03998327 -0.08843579 0.011271221 -0.0045633824 -0.036153663 -0.09276215 -0.02392192
now 0.11729485 -0.068965934 -0.122332886 -0.098951295 -0.13340648 0.08282755 -0.069346055 -0.04382244 -0.10988315 0.07433041 0.13369219 -0.021825079 -0.075110875 0.08384749 0.069877855 0.045015913
though 0.071595624 -0.05740538 -0.12416202 0.012165801 -0.05184447 0.108387396 -0.07249429 -0.008886285 -0.08990473 0.007927572 0.017837329 -0.09772884 -0.12169482 0.10223255 0.07077417 0.10105678
doesn't -0.009332545 -0.009091292 -0.07138481 0.00868986 -0.0124064 0.030761259 -0.023936285 0.0013581861 -0.051801536 -0.03522755 -0.008313302 -0.04600403 -0.06389435 -0.0038530098 0.025410146 0.093592174
years 0.10273815 -0.06220198 -0.10073698 -0.0045596976 -0.1152104 0.08946864 -0.028617484 -0.09311379 -0.10019553 0.15994222 0.029663945 -0.0064341864 -0.122829236 0.13020197 0.10097023 0.0726674
old -0.011445934 0.013186993 0.099470966 -0.03550385 0.086753555 -0.023848714 0.048185498 0.0005063274 0.08984719 -0.030937254 -0.0141811725 0.04532073 0.051642936 -0.058987897 -0.010349343 -0.08496185
thing -0.07205143 0.04701516 0.12387692 0.12667558 0.1258193 -0.1594257 0.17616487 0.040304486 0.07805451 -0.13147652 -0.19058475 0.0061786626 0.09782748 -0.15800211 -0.15882444 -0.11785371
actors 0.026532209 -0.05018295 -0.03533936 0.0075141047 0.046675235 0.007741086 -0.060162034 0.007192798 0.018944552 0.022356063 -0.053239465 -0.033685982 -0.030499823 0.037292045 -0.06829325 -0.009298717
work -0.036634203 -0.0112386225 -0.023158824 0.057816666 -0.0036573953 -0.025533175 -0.04028842 -0.02447787 0.045792036 -0.015830336 -0.06155276 0.0267979 0.0025034582 0.050741635 0.01625078 0.06217056
10 0.21261813 0.10067278 -0.08412874 -0.26215246 -0.15571931 0.20514317 0.027282763 -0.24711044 -0.013212107 0.22226802 0.11064385 0.21355063 -0.04307453 0.18345556 0.19477177 -0.06979907
before 0.011330168 -0.04783442 -0.091861516 -0.020533662 -0.110935226 0.051345844 0.011680729 0.013234131 0.0038453187 0.05405204 0.0628926 0.0068765073 -0.005703983 0.04126827 0.04112578 0.03117491
another -0.011882174 -0.002496552 0.01779058 0.021062281 -0.02073349 0.020569973 -0.012206883 -0.017713238 -0.026483761 0.0439461 -0.04090942 -0.0069440347 -0.01742423 0.02187682 -0.028145138 -0.009750776
didn't -0.17712761 0.1535421 0.20138352 0.057687987 0.21382684 -0.1966709 0.11184938 0.03166039 0.15980421 -0.13160928 -0.19677965 0.10270859 0.11796976 -0.1279412 -0.15004577 -0.13836406
new -0.008896709 -0.012119341 -0.0058450345 0.044917278 0.031473737 0.053380717 0.012526935 -0.022366785 0.011462799 -0.03392894 -0.0426461 -0.030019913 -0.016729085 0.05490677 0.018465502 -0.031934313
funny -0.081146814 0.09309237 0.076817445 -0.00849214 0.057079323 -0.020588914 0.030123787 0.03067935 0.017626544 -0.017304866 -0.0191826 0.0039989315 0.055427648 -0.08863097 9.154044e-05 -0.06970177
nothing -0.08603045 0.046260368 0.06399703 0.033968464 0.14696302 -0.06363026 0.058826897 0.005478 0.052994758 -0.055153728 -0.07446317 0.0021991332 0.080577634 -0.09740736 -0.04000837 -0.12194067
actually -0.028817862 0.0021558583 0.03718658 0.090359256 0.113205455 -0.07548108 0.05330631 0.06619034 0.0106015215 -0.06405249 -0.0018998375 0.016798144 0.075719334 -0.039155476 -0.048759032 -0.045785643
makes 0.076788135 -0.009035496 -0.013651095 -0.0032429672 -0.11687032 0.028811043 -0.054301605 -0.017225856 -0.05599991 0.02049584 -0.0139217805 -0.039761405 0.019890623 0.05214087 0.07400787 0.008799334
director -0.05246208 0.021854183 0.058327787 -0.021461671 0.05625598 0.004213285 0.035088334 -0.04829546 0.0583399 -0.007786079 -0.040470332 0.0789879 0.058366265 -0.021723377 0.0006181777 -0.07676058
look 0.015798189 -0.02499796 -0.05166219 0.0019807483 -0.05805193 0.026722485 -0.036195092 0.027497487 -0.040153805 0.012018248 -0.007979003 -0.022853892 -0.07474296 0.03763819 -0.030891245 0.08651572
find -0.050535627 -0.033950523 0.0034887278 0.034000155 0.08044764 0.017395109 0.008090254 0.027654387 0.025954062 -0.009574047 -0.032109674 0.013568039 -0.03027398 0.01897657 0.0097368 0.025631493
going 0.03829168 0.05371021 -0.044805393 -0.12323947 -0.0065146554 0.02984858 -0.023934595 -0.044116378 0.031649046 0.0547618 0.03206494 -0.0056143827 -0.00080074935 0.08672996 0.03839976 -0.00689083
few -0.028666899 0.108450346 0.049725387 0.012941424 0.062786125 -0.046560172 0.029780151 -0.047234952 0.05868128 0.027628921 -0.043092653 0.075360134 0.07221765 -0.01572645 -0.052648384 -0.08514103
same -0.072769925 0.08820269 0.10872469 0.046426117 0.10214759 -0.010489658 0.0734663 0.07822125 0.078291036 -0.13818997 -0.07828053 -0.008639814 0.057077788 -0.07212041 -0.07773155 -0.012929259
part -0.08234429 -0.014444234 0.07891384 0.15808053 0.1988625 -0.06555767 0.09236272 0.16197105 0.03734365 -0.042752188 -0.085246034 0.00828636 0.06308678 -0.09807708 -0.09651045 -0.0520793
again 0.07782343 -0.0052369717 -0.048985437 -0.143738 -0.020072713 0.041407462 -0.0026756015 -0.08973974 -0.02622737 0.10971318 0.065171935 0.014500775 -0.04314048 0.09256608 0.050450604 -0.035920527
every 0.055226695 0.0055654943 -0.022048881 -0.0903415 -0.0096477205 0.047813162 0.010302037 -0.019313239 -0.029464025 0.036428712 -0.005628043 0.02903718 -0.051720254 -0.020926796 0.04370106 0.038262133
lot -0.02715114 -0.035413552 -0.00035809728 0.027660092 0.067600004 -0.009322332 -0.019746738 0.05955886 0.05191766 -0.059762392 -0.07672844 -0.0068000485 -0.03729772 -0.029414495 -0.03394855 0.020721342
cast 0.05118546 0.0009214474 -0.019972835 -0.020718856 -0.030048642 0.08805481 0.018561034 0.024375625 1.1890639e-05 0.016805662 0.060868453 -0.046570715 0.011473218 0.045484003 0.08840486 0.008224364
us 0.06771427 0.022669144 0.017019033 -0.00828458 0.02853756 0.038242787 0.05116862 0.017420372 -0.061633304 -0.017898917 -0.0025714797 -0.027564777 0.010941455 -0.034705084 0.04320162 0.015374499
quite -0.03493451 -0.0054522995 0.09685991 0.097874306 0.1240399 -0.03053366 -0.045298837 0.05317164 -0.034233876 -0.052491482 -0.045936216 -0.07869678 0.064708225 -0.0101029705 -0.059489742 -0.036820136
down 0.021371333 0.035522934 0.022220982 -0.09521808 0.020834148 0.051580284 0.04963402 0.0020829279 0.009539525 0.049341064 0.04375883 0.049843773 -0.027924964 0.032193534 0.049955 0.0077161556
want 0.037678227 -0.042633105 0.0055636587 0.018698312 -0.071514994 0.02042313 -0.030158404 -0.040683184 -0.033834394 0.042131484 -0.017762465 0.009620882 -0.04990196 0.03349387 0.040821422 0.07138811
world -0.013296395 0.0031173222 0.08915753 0.104073025 0.05643852 -0.04931098 0.08012616 0.09308653 -0.028560776 -0.07167379 -0.12859549 -0.06993091 -0.007935947 -0.04038422 -0.03618927 -0.057338715
things -0.050488144 0.029635021 -0.005766757 -7.223434e-05 0.0027593602 -0.049431458 0.068275146 0.002034976 0.05722535 -0.06570845 -0.0391575 -0.008236059 -0.011704083 -0.03823971 -0.063980184 -0.09244289
pretty 0.018298319 -0.036960322 -0.0786639 -0.19354226 -0.108998746 0.041871622 0.0045605777 -0.16354147 -0.017891772 0.12226411 0.1310644 -0.0042156875 -0.0447196 0.10231137 0.09501794 -0.014029715
young 0.04266859 0.014263635 -0.06413311 -0.030508796 -0.048316922 0.05035351 -0.063583866 0.028981678 -0.017551525 0.01141433 0.077398375 0.0053971433 -0.07817035 0.07619266 0.06379556 0.054064654
seems -0.05849762 -0.008370096 0.078884505 0.04945256 -0.00791522 -0.036153734 0.0022129177 -0.01608598 0.036655795 -0.042935338 -0.005572676 0.047917884 0.05250748 -0.019417685 -0.078245826 -0.04010013
around 0.098082684 -0.018701605 -0.06745553 -0.062025666 -0.13153118 0.087854825 -0.047692955 -0.14826737 -0.06947338 0.14514047 0.11256315 -0.025508057 -0.039909434 0.08622397 0.15439391 0.06294747
got 0.014873804 -0.016127497 0.039084513 -0.004561178 0.022125695 0.021597259 0.052690506 0.04413029 -0.02452287 0.030827535 -0.017734332 0.031649828 0.019273354 -0.008069617 -0.02868945 -0.025644546
horror -0.049113695 0.008489266 0.049078394 0.019444918 0.05970742 -0.016519416 0.0060441056 0.04437208 -0.0056483536 -0.05289184 -0.021880437 0.014471273 0.043214284 -0.01642369 -0.079646066 0.030569285
however -0.032664917 -0.033650167 0.043027893 0.06312884 0.07405075 -0.0619118 0.023332085 0.13088523 0.034739245 -0.1008486 -0.15501858 0.025074288 0.021828875 -0.027085846 -0.1741788 0.04251958
can't 0.028757924 -0.075620554 0.031544793 0.031946212 0.00964803 0.10149247 0.001555082 0.041939754 -0.042724945 -0.06822158 -0.030428171 -0.11313367 -0.06654537 0.04660454 -0.03762088 -0.020880014
fact -0.016827265 0.032568015 0.027331002 -0.02916652 -0.0022396916 0.026874125 0.05181652 0.019782083 -0.0067811045 -0.021870809 -0.07400698 -0.04871746 0.009158305 0.04464731 -0.07465186 -0.022208737
take 0.047355417 -0.033348158 -0.031642802 -0.03538449 -0.006439653 0.05944327 -0.035040624 0.009299961 -0.014148468 0.043935146 0.014798798 0.02085985 -0.1062781 0.06739063 0.08896714 0.0631393
big -0.07245551 -0.027007848 0.029842854 -0.015864985 0.12267596 4.3434906e-05 0.008162716 -0.010257585 0.06252571 -0.12562886 -0.067901395 -0.047912374 0.04873723 -0.06278965 -0.10262052 0.017764138
enough -0.12074561 0.04430077 0.14777789 0.07108212 0.1412884 -0.09292695 0.10080769 0.06513672 0.07952225 -0.09543898 -0.040599104 0.11196144 0.09889378 -0.11027293 -0.059748508 -0.10561462
long -0.0074776434 -0.033175446 -0.003976753 0.035104822 0.03945774 0.01606833 -0.05817877 0.035917774 0.030651432 -0.07643648 -0.09100654 0.032627147 -0.043627467 0.009771271 -0.07023405 0.023874626
thought -0.013510853 0.03335269 0.06789848 0.088041544 0.018665608 -0.073184155 -0.03457375 0.030949319 0.015798278 -0.025167681 -0.021971382 0.018846327 0.044293985 -0.018472204 -0.015992908 -0.0064478964
that's 0.061407954 -0.044755686 -0.030078841 -0.030633962 0.013843744 -0.018056367 -0.006902978 -0.044179104 0.012465353 0.01752616 0.01221497 -0.010080453 0.03662006 -0.015548969 -0.004848643 0.020869074
both 0.09186614 -0.112027206 -0.119860396 0.04596519 -0.05930389 0.068255104 -0.09925667 0.06374998 -0.14340168 0.07058463 -0.053479917 -0.10969998 -0.11133999 0.1350739 0.011744115 0.05816809
between 0.08940869 -0.037585072 -0.1084473 0.03580757 -0.0700386 0.113019355 -0.074476525 -0.025145838 -0.08989806 0.11807702 0.10036002 -0.0456077 -0.057266034 0.04742774 0.1415979 0.04796192
series 0.03377121 -0.040476907 0.03696096 0.1359454 0.04992899 0.051145867 -0.026541296 0.11220283 -0.03249021 -0.035823066 -0.018970184 -0.08083615 -0.055843655 -0.022044025 -0.0022210625 0.04328358
give 0.034280516 0.039130136 -0.051017288 -0.11958103 -0.074510224 0.022350358 0.03482282 -0.101421796 -0.052411254 0.06234361 0.0020277514 -0.027063984 -0.041881733 0.07617851 0.017590303 0.047748674
may 0.059750274 0.025285162 0.008640404 -0.033819992 0.012874725 -0.0041532 -0.047727194 -0.0022739398 0.030013178 -0.0071581323 0.041955452 0.03228181 -0.057595294 0.055682514 0.043224785 0.07570075
original -0.08837295 0.02818539 0.06207541 -0.02322792 0.052207522 -0.02460902 0.080979384 -0.0677299 0.008745258 -0.0060809967 -0.053879406 -0.010485535 0.043331422 -0.060851924 0.009460788 -0.030629715
own 0.09314986 -0.05086306 -0.031030316 -0.02016555 -0.019995233 0.04417672 -0.08235632 -0.017130364 -0.010647584 0.027461857 0.011416463 -0.056068733 -0.08257075 0.002769775 0.0057313177 0.034080345
action 0.048270117 -0.0098421965 -0.022944666 -0.08303258 -0.10566763 -0.008625126 -0.057403486 -0.0016626427 -0.037381534 0.10374519 0.070403375 0.079108074 -0.062248267 0.017415069 0.051398918 0.05026503
i've 0.045007452 -0.010184035 -0.0049311724 -0.014689728 -0.021316402 0.056294877 -0.021827253 0.03697127 -0.00066617754 -0.0055109425 0.042251974 0.06317091 -0.05064529 0.07110834 0.09198599 0.024265718
right -0.013825612 -0.020889493 -0.07295642 0.0061772577 -0.07128426 -0.0055305464 -0.038124036 0.00442627 -0.043580152 0.06249495 -0.008958822 -0.06472677 0.03557088 0.0066007664 -0.0036004907 0.012095323
without 0.09005097 -0.062609926 -0.008429893 0.03952357 -0.013642468 0.059970632 -0.09503457 0.00063121214 -0.106583 0.04331788 0.021013057 -0.03732701 -0.07510812 0.07635055 0.063935496 0.11467934
always 0.010929535 0.0018337573 -0.011664053 0.0036707413 -0.05338182 0.05755596 0.014247155 -0.030910376 -0.076349765 0.009058439 -0.030243183 -0.037095793 -0.066084236 0.07370063 -0.009011455 0.06022617
times -0.038302723 -0.029480346 0.047981236 0.029454641 0.036318853 -0.04751854 -0.009256421 -0.015090289 -0.071197174 -0.019960366 0.020561598 -0.009406851 -0.005872675 0.019649053 -0.0052547087 0.03758302
comedy -0.054766484 0.025652738 0.120323114 0.14350933 0.1618611 -0.04419646 0.12119829 0.1422591 0.00078815356 -0.1480032 -0.14238565 -0.030957026 0.12936804 -0.11761768 -0.18927838 -0.038362782
point -0.03321085 0.0061411387 0.06563792 0.008229691 0.06618729 -0.025704611 0.07185802 -0.030035451 0.029832741 -0.08878304 -0.10071473 0.06367425 0.07520381 -0.06627598 -0.10450265 -0.07223693
gets 0.01269173 0.040220197 0.04422016 -0.0653392 -0.05511469 -0.058883477 0.055405945 -0.11173152 0.01396756 0.07614216 0.034513548 0.0617064 0.064060755 -0.03936436 -0.010671667 -0.021140195
must 0.070156984 -0.043535758 -0.10251039 -0.15685053 -0.14125924 0.08030704 -0.06648293 -0.100819424 -0.014626463 0.1334321 0.07909088 0.0013940705 -0.06422746 0.09905523 0.14627662 0.055170793
come -0.0022490453 -0.062104736 0.029779512 0.058410592 0.0447585 -0.016961997 -0.0287419 0.039402135 -0.027577804 -0.12917796 -0.07399634 -0.02628006 0.04342129 -0.0021180732 -0.07055267 0.019802768
role -0.0011403426 -0.02247818 0.06559036 0.061598096 0.09626978 -0.030472249 0.018397775 0.087634146 0.035871904 -0.055567008 -0.074824825 0.056020305 0.0015046344 -0.007647784 -0.08682363 0.018711932
isn't -0.013681353 0.010364605 -0.03082046 0.019791543 -0.037735447 -0.055773057 -0.021534665 -0.025584653 0.0030089573 -0.040458836 -0.018892696 -0.003644528 0.08004048 -0.040035482 -0.05734481 0.005816367
saw 0.07485525 -0.047310513 -0.110327035 -0.15054166 -0.060196847 0.06824408 -0.052426804 -0.074309014 -0.05783436 0.06331719 0.021506473 0.0051052268 -0.042494617 0.023291133 0.024941655 0.0131361345
almost -0.024021735 -0.0007670988 -0.021248769 0.06871557 0.051985595 -0.038038246 0.0135346735 0.030734843 -0.034184556 -0.050354388 -0.07409339 0.014011956 0.005629115 -0.012449919 -0.1040158 0.016932229
interesting -0.013659747 -0.031329352 0.08482659 0.060202636 0.059715714 0.008791564 0.009317746 0.07799767 0.046104915 -0.09919858 -0.16292726 -0.01338456 0.01566828 -0.005609134 -0.05938161 -0.046003874
least -0.036320753 0.017278833 0.067068435 0.014991247 0.0805745 -0.04103981 0.044394292 -0.0182694 0.10353733 -0.023139356 -0.042437337 0.029794667 0.050623927 -0.05449729 -0.055686757 -0.029192686
family 0.075333744 -0.08163748 -0.076560356 0.026485745 0.014371281 0.015236071 -0.05576921 0.0093563935 -0.062717244 0.0039718044 0.00012929703 -0.029166536 -0.021981865 0.09727038 0.033897117 0.025477545
done -0.0509506 -0.05725724 0.09507251 0.14375566 0.1284218 -0.0934208 -0.013414411 0.15472291 0.06522417 -0.14862181 -0.14658798 -0.071341306 0.06062136 -0.062200725 -0.0683229 -0.00054332765
there's -0.022532182 0.054539993 0.032569654 -0.02387347 0.0014702604 -0.008412665 0.019553546 0.0042190263 -0.011308825 0.03669228 0.09198898 -0.0021232474 0.073750414 -0.055311672 0.083190516 -0.06942857
whole 0.11785412 -0.044775285 -0.09247429 -0.06480142 -0.18709314 0.09918885 -0.020126782 -0.13192436 0.0007534225 0.03379234 0.1271149 -0.06723078 -0.014577613 0.11070847 0.078685686 0.024088228
bit -0.02372963 -0.019823058 0.036687132 0.12572715 0.120781384 -0.08892487 -0.04934537 0.10099088 -0.008541274 -0.06374822 -0.061644617 -0.013791356 -0.04660519 -0.025339128 -0.032485075 -0.022917535
music 0.07657682 0.022560442 -0.14678708 -0.19099954 -0.11817367 0.061239798 0.012639415 -0.14202853 -0.05568309 0.15779683 0.13298582 0.0047372137 -0.058196887 0.06894173 0.089738734 0.030651677
script 0.015475955 0.06623641 -0.008923631 -0.09429451 -0.16306469 -0.00494945 0.051792577 -0.18537425 0.044350766 0.10510566 0.16366114 0.114709415 -0.020140614 0.09870549 0.10518593 -0.09773922
far -0.06441282 0.015064457 0.08495366 -0.00842706 0.05629087 -0.08554528 0.058430854 -0.0053176833 0.04136321 0.0050295587 -0.06563637 0.013502841 0.015849607 -0.06502338 -0.052575268 -0.021195639
making 0.016116193 0.078965046 -0.0697779 -0.10255603 -0.07919092 0.056527607 0.03466711 -0.014866542 0.022093847 0.07240202 0.03342874 0.024701016 -0.067321174 0.061250683 0.10694869 0.00043485672
guy 0.02131312 0.07131838 -0.077585444 -0.12477293 -0.08264442 0.0036805011 -0.019950835 -0.081243984 0.006211694 0.097000845 0.13131337 0.121234134 -0.039388996 0.06239409 0.097833954 -0.035863474
anything -0.05738248 0.047798775 0.09213148 0.039888125 0.07105708 -0.047426175 0.080954514 0.05307186 0.04915538 -0.12845375 -0.12241562 -0.040668424 0.09455099 -0.03845754 -0.08483633 -0.092670105
minutes -0.14197928 0.04283447 0.17981507 0.13341875 0.26984245 -0.1483898 0.047624584 0.11616334 0.105853625 -0.1559091 -0.15705983 0.03444742 0.18591902 -0.17332357 -0.20828347 -0.079823576
feel 0.050879624 -0.084640086 -0.024315402 0.027727393 -0.019877048 0.07840214 -0.094928235 -0.003899866 -0.08060907 0.011406103 -0.033649843 -0.027118472 -0.04924068 0.01661366 -0.041943364 0.06991016
last -0.03317041 0.025359346 0.072777376 0.0980214 0.10664572 -0.063507 0.008899435 0.04915004 0.06913414 -0.030138386 -0.0665452 -0.0014545104 0.07742334 -0.050049346 -0.092284724 -0.008251377
since 0.03707032 0.06353909 -0.09263803 -0.153036 -0.12585878 0.113191955 0.0003561983 -0.15482663 -0.019444833 0.1639966 0.17010696 0.08108033 -0.0754817 0.06596964 0.14797525 -0.0014978726
might 0.006272463 -0.059388295 -0.0153718935 0.039160445 -0.030665543 -0.019629855 -0.03401945 0.027316766 -0.0025505032 -0.055023436 -0.089553796 -0.061648816 -0.026000971 -0.05811357 -0.11378073 0.008692453
performance 0.074186854 -0.025163252 -0.04826696 0.043062944 -0.03504106 0.053686175 -0.035296798 0.071224995 -0.10360806 0.05197787 -0.0067219352 -0.026308527 -0.089519665 0.063205086 0.060808595 0.102441244
he's -0.06298741 0.05531095 0.010653594 0.0069692116 -0.002836948 -0.021619428 0.045231868 -0.043857127 0.06793531 -0.015927827 0.03976111 0.07949499 0.033812273 0.019270126 -0.046572223 -0.017142927
2 -0.015434976 0.10127158 0.05530818 0.05162713 0.03372775 -0.03529241 0.114295185 0.0786878 0.08348729 -0.026529344 -0.089302085 -0.005642456 0.103849635 -0.0744479 -0.09349648 -0.06604931
probably -0.10802043 -0.032072753 0.08956887 0.17586324 0.17611577 -0.107057914 0.020223234 0.16281529 0.050053313 -0.2319001 -0.24974953 -0.057931636 0.11109485 -0.09659923 -0.1479501 -0.022458868
kind -0.060227107 0.117383815 0.031494033 -0.045714937 0.030852683 -0.0644513 0.015922626 -0.071322784 0.044525415 -0.050549127 -0.038588505 0.0057603274 0.090521365 -0.016590768 -0.020666825 -0.06715467
am 0.09535521 0.05033498 -0.016948715 -0.10795947 -0.060636505 0.024055934 0.029861938 -0.097740956 -0.08269925 0.014593626 0.074323334 -0.06901956 -0.04811463 0.06342433 0.035963975 0.049930796
away -0.027696202 0.073801465 0.106700845 0.08512327 0.05814124 -0.10043449 0.04423216 0.04002462 0.013134763 -0.06441365 -0.11044506 -0.027333286 0.060665015 -0.11273902 -0.12653533 -0.084125035
yet 0.07215784 -0.07397208 0.034914043 0.13506927 0.032155696 0.0025200364 -0.03505426 0.11117441 0.011533269 -0.06408559 -0.13378805 -0.08277693 0.00022151145 0.004456492 -0.12344718 -0.0040776646
rather 0.02780085 0.0006287298 -0.042579226 -0.18951505 -0.06302204 0.053357825 -0.05795688 -0.17256072 -0.007848982 0.050484803 0.09290675 -0.023613151 0.0035480906 0.078023925 0.054386187 -0.010257746
tv -0.06507614 0.043208633 0.0401852 0.043504983 0.037340146 -0.07883208 0.00026956786 -0.00023895185 -0.020188058 -0.06917582 -0.05319201 -0.007917089 0.06311298 -0.039943103 -0.06486493 -0.029070944
worst -0.11340573 0.1305087 0.15588574 0.16778514 0.2849386 -0.1600262 0.07692832 0.1344025 0.12101691 -0.18409875 -0.14551489 0.03116831 0.16880658 -0.17499867 -0.16295312 -0.14112465
girl -0.050304204 0.02456225 0.026930816 -0.006194951 0.002794137 0.029921638 -0.04407981 0.048037227 0.057316545 0.0026024438 -0.02015519 0.049492806 0.047896188 -0.026017187 -0.029736005 0.021836411
day 0.047771435 -0.04810603 0.010427441 0.032003563 -0.02945909 0.048882872 0.020250265 -0.013469314 -0.058134884 -0.030396627 -0.01786003 -0.05121108 0.028069064 -0.0015612006 -0.024387004 0.0371278
sure 0.0710625 -0.099542744 -0.0509587 0.00042521843 -0.10634965 0.10881052 -0.042502236 -0.052555393 -0.12057797 0.027703194 0.042566553 -0.030008106 -0.08835813 0.11305178 0.09436133 0.036792994
fun -0.070842534 0.07467306 0.07438264 0.08769007 0.096527286 -0.09283743 -0.022080459 0.07846039 0.10104083 -0.0031633512 -0.05838915 0.005022982 0.049396615 -0.049002733 -0.007000957 -0.03754215
hard -0.045657136 -0.005628352 0.046784293 0.062679894 0.0361823 -0.05559063 -0.050873663 0.055030197 0.0058076987 -0.039315548 -0.069508344 0.0069426564 0.011396139 -0.017698303 0.016161906 0.050663322
woman 0.051372167 -0.0010646234 -0.017342836 -8.8046305e-05 -0.02967874 0.04043066 -0.04292988 0.023290956 -0.07625866 -0.009773236 -0.07239297 -0.015162914 -0.059357055 -0.0038080146 -0.05501232 0.04572976
played -0.010757436 0.049987815 0.057937488 0.020947209 0.05768045 -0.0010007151 0.059747763 0.07142356 0.066140585 -0.032747112 -0.038011856 -0.04560532 0.033077642 -0.057011418 -0.017367411 -0.036178082
each 0.11657458 -0.06499734 -0.053971663 -0.04373789 -0.10196923 0.13415742 -0.069124684 -0.06978724 -0.12747088 0.16263345 0.11316356 -0.007709859 -0.054749813 0.14180297 0.08775463 0.101755105
found -0.073735684 -0.049929537 0.02817139 0.17704259 0.13801055 -0.046383955 -0.03567374 0.07583171 0.013385448 -0.04571389 -0.13554016 0.005907532 -0.049951337 -0.041682046 -0.10933318 0.01300019
anyone -0.011870265 0.08540354 0.01603845 -0.017343683 -0.009071473 -0.04310078 0.007327712 0.024570098 0.024217308 0.009706547 0.013842512 0.073220395 0.033662297 -0.025122803 0.08031018 -0.013935919
having 0.013021556 -0.036092047 -0.009122436 -0.0111082075 -0.03854962 0.022044675 -0.045797616 0.056622956 -0.036477312 0.022602154 0.079741366 -0.020655626 -0.03483157 0.094573416 0.079212815 0.06292334
although -0.0043459954 0.019832091 -0.04651645 -0.07190753 -0.026751867 0.03313705 -0.0030522523 -0.06526042 0.029520944 0.07991519 0.07133717 -0.039860357 -0.001078905 -0.009097755 0.057816844 0.027084956
especially 0.016696397 -0.059381936 0.05716273 -0.011580126 0.036051948 -0.036182232 -0.008211034 0.023812009 -0.033214767 -0.059177686 -0.04697211 -0.0020690185 -0.024061684 -0.07255587 -0.053400617 0.060109265
our 0.023124075 0.027593555 -0.092653416 -0.047531947 -0.06809468 0.027579956 0.06414024 -0.11683901 -0.096636906 0.13089027 0.11437926 0.033576548 -0.05657703 0.038010467 0.12819037 0.059841536
believe -0.038642954 -0.013749043 0.05209488 -0.016110182 0.083331764 0.027251719 0.014955194 0.024377784 -0.02395778 -0.02378186 -0.041599263 -0.0070355064 -0.04606122 -0.041086428 -0.045167513 -0.0077346163
course -0.054378215 -0.02946321 -0.016394312 0.03068717 -0.01004747 -0.011651328 0.05139776 -0.04386678 0.005416408 -0.062417753 0.0125112645 0.04999911 0.05935943 0.00045870148 -0.006450163 0.0035754025
comes -0.012728346 -0.026459815 0.023246843 0.05267273 0.026935207 0.00629151 -0.029780608 -0.027695544 0.004675343 -0.06224406 0.03189871 -0.018482456 0.036286704 -0.040811438 -0.03280833 -0.017440567
looking -0.06899611 -0.029685339 0.0351045 0.013529809 0.016668981 -0.08860168 0.0044195335 0.063981846 0.059024464 -0.06985002 -0.02737676 0.037691075 0.073366284 -0.081030175 -0.08069019 -0.015067737
screen 0.006492425 0.023999395 -0.09313208 -0.08657656 -0.07585712 -2.5280147e-05 -0.030082503 -0.118708804 -0.007215045 0.09456847 0.04814923 -0.010484778 0.0072684353 0.086003914 0.113059595 -0.045745857
trying 0.0697335 -0.082752325 -0.051907625 0.03617308 -0.032957442 0.019347923 -0.033065524 0.07821107 -0.06521367 -0.025683692 -0.03548093 -0.09422784 -0.06777024 0.058834262 -0.010782776 0.0038015542
set -0.010381209 -0.010794754 -0.0874615 -0.13311765 -0.13169844 0.049107116 -0.029589638 -0.17856808 -0.0084996475 0.12298306 0.118552916 0.065002315 -0.067836426 0.06595796 0.07546276 -0.03271255
goes 0.05298988 -0.028082026 -0.06674607 0.08546244 -0.045049526 -0.027245514 -0.051629968 0.05415643 -0.06045685 -0.061223112 -0.065656506 -0.0054780785 -0.070668966 0.0761756 -0.017502993 0.06183002
looks -0.03607803 0.066847585 0.015907453 -0.10277314 -0.027468303 0.0031784605 0.030951625 -0.12810813 -0.025886685 0.03273507 0.09315884 0.00028406165 0.066170774 0.007080545 0.010940112 -0.06006059
place 0.06685741 -8.739239e-05 -0.15379067 -0.18624987 -0.25640476 0.11114313 -0.010857456 -0.21209309 -0.027850209 0.22677878 0.18850882 -0.0065668467 -0.10340955 0.15282282 0.24792765 -0.014776963
book -0.03721054 0.004946997 -0.016009511 0.0034658331 0.0319532 0.021527523 0.04887107 -0.0175752 0.01704332 -0.06202526 -0.012087765 -0.051689625 -0.010250366 0.013483636 -0.048221197 -0.042570833
different 0.059954483 -0.008225299 -0.0008010075 0.029607115 0.029108664 0.017995536 0.007927566 0.025451599 -0.07189348 -0.06621271 -0.06232538 -0.111493476 -0.0014468431 -0.054355267 -0.079363525 0.04494482
put 0.08090771 -0.03302791 -0.12539367 -0.0859554 -0.124180116 0.05826477 -0.052815538 -0.11763895 -0.054146614 0.08700383 0.1286386 -0.0072707403 -0.020322356 0.116520524 0.10412101 0.009850143
ending 0.06085545 -0.009389456 -0.0043940083 -0.050195377 -0.038555775 -0.021171113 -0.052240632 -0.064383894 -0.044375043 0.040018324 0.06251615 -0.018230114 -0.018033698 0.0931194 0.060385216 0.009064439
money -0.10543032 -0.024487149 0.044748817 0.14940572 0.15152438 -0.08610384 -0.03297999 0.10610199 0.08508261 -0.16733494 -0.14384156 0.0014870641 0.048122145 -0.107358545 -0.09847173 -0.060800392
maybe -0.043196447 0.08224503 -0.01608838 -0.062489357 0.043686442 -0.026628025 0.022039903 0.020391101 0.07168923 -0.008161967 -0.009169927 -0.026071928 0.017976232 -0.052424066 0.018462205 -0.08142569
once 0.13134949 -0.054876868 -0.10734947 -0.103243105 -0.18787643 0.10180322 -0.05053185 -0.021191135 -0.08424878 0.18937182 0.17291836 -0.08639776 -0.13839534 0.07253935 0.13055736 0.08620718
sense -0.0822391 -0.0066151842 0.13074733 0.094003856 0.117196895 -0.044788755 0.034355916 0.08880966 0.0667075 -0.105537966 -0.09977184 -0.022329418 0.09630259 -0.06871177 -0.06386297 -0.031809866
reason -0.0024044034 -0.028697932 0.051511694 0.059889276 0.07254963 0.012172527 0.0099415835 0.042336933 0.057763476 -0.041620582 -0.049179938 -0.046798136 0.03161391 -0.04043263 -0.062212553 -0.019979099
true -0.005994997 -0.038962215 0.0036391397 0.0049320944 0.033097327 0.026469283 -0.022631122 0.025930945 -0.02674175 -0.03174312 -0.028963286 -0.0046414593 -0.07055881 0.0025362046 -0.005496825 -0.01352255
actor 0.04743214 -0.10692557 -0.051993493 0.061428946 -0.02918539 0.0599724 -0.02833758 0.03714801 -0.09429621 -0.022504667 -0.041706156 -0.096094675 -0.05463872 0.07531959 0.03727445 0.04044336
everything -0.005600614 -0.042050637 -0.014512517 0.0061616614 -0.040434543 0.08623566 -0.0023553493 -0.07045922 -0.022185888 0.007871402 0.054159366 -0.024265135 -0.08097003 0.04900332 0.08744829 -0.0010520163
wasn't -0.096601605 0.044102747 0.22150093 0.106831156 0.19295357 -0.14293854 0.11247231 0.13968526 0.14433128 -0.16313969 -0.13613796 0.017247891 0.119809695 -0.18343341 -0.19262794 -0.12427646
shows -0.051844306 -0.008745409 0.07266532 0.055228364 0.036167074 -0.04533078 -0.056845766 0.04754157 -0.027100706 -0.019405894 -0.0042338693 0.022807077 0.0030769717 -0.019015878 0.005928571 0.05446786
dvd 0.065726854 -0.030700304 0.004029037 0.04525307 -0.06827629 -0.0033225932 -0.09445705 0.02982683 -0.029056596 0.04640089 0.038569923 -0.015260602 -0.068267755 0.09010346 -0.020117715 0.018532889
three 0.028504388 -0.02759159 -0.042892978 0.032795165 0.012377405 0.04273649 -0.08321793 0.047055658 -0.01067188 0.054462805 0.03546221 0.0020667338 -0.003988072 0.020232467 0.095458895 0.04411015
worth 0.088413216 0.07613587 -0.069540866 -0.20583442 -0.19553286 0.1478276 -0.011921063 -0.18578057 -0.10821352 0.15912792 0.14993182 0.07721738 -0.09277664 0.09936036 0.19357109 0.06549874
year 0.07197966 -0.06553808 -0.046635848 -0.039625395 -0.08371487 0.030795418 -0.06058002 -0.019150628 -0.059309896 0.10082487 0.010576656 0.06427712 -0.122512706 0.048769146 0.1351053 0.085213825
job -0.05572679 -0.045895264 0.058780733 -0.013136253 0.067249864 -0.0053186966 -0.026634691 -0.036078364 -0.0043678763 0.0050058975 0.012852159 -0.039900173 0.032530393 -0.040419053 -0.059098806 0.023235114
main -0.017850861 0.013223649 -0.009915116 -0.0646684 -0.07595709 -0.00055930216 -0.0008771831 -0.016233066 -0.036347263 0.06791021 0.096790254 0.09100647 0.03005692 0.057999093 0.06649651 -0.012652593
someone -0.08042565 0.008083857 0.048423354 0.087397456 0.12633759 -0.099952325 0.07189125 0.053081457 0.038278535 -0.09414878 -0.106540516 0.023584796 0.1293305 -0.070044056 -0.139099 -0.109993935
together -0.008403374 -0.098480165 0.04086373 0.09137271 0.00556251 -0.012179927 -0.035207387 0.12065765 -0.017837996 -0.09568363 -0.012147468 -0.014747076 -0.07602984 0.03063021 -0.011399387 0.033817746
watched -0.0059440387 0.006949093 0.030386433 0.056305446 0.0545144 -0.08072886 0.025786135 0.12682685 0.012637732 -0.13661747 -0.09987171 -0.08031673 0.082674265 -0.000795866 -0.06748927 -0.02361131
play 0.0069313184 -0.0166325 -0.0153750675 -0.046059664 -0.11820128 0.09743754 -0.006861138 -0.05047261 -0.011987174 0.008620852 0.040605273 0.011992752 -0.023726946 0.036457065 0.092660025 0.050702896
american 0.070946336 -0.06030499 -0.17165625 -0.13613857 -0.23110463 0.11900153 -0.030102931 -0.09707256 -0.113454655 0.10767392 0.08831786 -0.030541036 -0.10812733 0.08950367 0.1288488 0.07353123
plays -0.054705147 -0.044113684 0.06100095 0.019453216 0.046642262 -0.062119458 -0.055358477 0.078900464 0.037564307 -0.11570981 -0.05359189 -0.018339183 -0.008285072 -0.006894127 -0.12100207 -0.03446679
1 -0.086322665 0.043286514 0.044446453 0.09941456 0.1044312 -0.020468237 -0.051450875 0.11451574 -0.004383181 -0.066199884 -0.112253875 0.033002064 0.033847243 -0.00080315204 -0.044645652 0.017888455
said 0.026095072 -0.00072587887 -0.031385135 -0.021360025 -0.010460813 0.039890997 -0.01158317 0.02067621 0.010103977 -0.015773224 0.0064589516 0.049458407 0.053947724 0.03991318 0.023719458 -0.06597849
effects -0.041524533 0.0015140745 0.0012074441 0.02151846 0.067934394 0.025295744 0.07470114 0.01832582 0.04123299 -0.048803322 -0.058034405 -0.00062293804 0.044306904 -0.026601994 -0.02809951 -0.058527917
later 0.04084838 -0.07027243 -0.01950843 0.08656841 0.021332378 0.09888234 0.031013371 0.02496639 0.004317769 -0.08361493 -0.12252908 -0.09860855 -0.047945004 -0.02358618 -0.04262355 0.0028864208
takes -0.014712552 -0.026035473 0.0034487338 0.08104439 -0.005435882 0.06249927 0.006076038 0.07141671 0.009517922 -0.081454776 -0.076910146 -0.04169928 -0.059545416 0.019772846 -0.03137174 -0.0047817696
instead -0.16750452 0.028336208 0.15483421 0.11248496 0.25568905 -0.1099331 0.06621622 0.16332546 0.116149396 -0.22448266 -0.13744459 0.02859526 0.15628548 -0.12883084 -0.1477218 -0.13400543
seem -0.011752863 -0.013716757 -0.018405117 0.044106904 -0.006039037 0.015577946 -0.0020524978 0.051184762 0.0056497925 -0.031729538 -0.06990617 -0.0714423 0.067756526 0.009538476 -0.017909056 -0.0169372
beautiful 0.07703159 -0.12865247 -0.060154103 -0.027009375 -0.065976605 0.06687282 -0.035019185 -0.10801862 -0.08158158 0.10635768 0.06093815 -0.09480389 -0.10295312 0.13045537 0.0653758 0.09759506
john 0.029595574 -0.0146993445 -0.0018437721 -0.04067573 -0.016276063 0.061570078 -0.028943127 0.03860919 -0.05431802 0.022935785 0.023952473 0.019879006 -0.081036076 0.030312123 -0.006052637 0.06393138
himself 0.084581405 -0.091712736 -0.06681746 -0.032068577 -0.08996707 0.083457574 -0.10242648 0.0002940411 -0.06050656 0.15995024 0.06705454 0.04130687 -0.08919633 0.11926626 0.117596045 0.093113974
version 0.11082339 -0.03087951 -0.107485205 -0.080120414 -0.22048528 0.09186795 -0.09641125 -0.08882571 -0.03985793 0.15808125 0.12215927 -0.037174832 -0.112358816 0.1585442 0.11448289 0.0904696
audience -0.018198518 -0.033481427 0.015006498 -0.03503059 -0.037017215 0.049601503 0.021870438 0.022191009 0.030744215 -0.020044163 -0.025053076 0.033367366 -0.03745758 0.04429085 -0.007347542 -0.05317192
high 0.00096541014 0.0035371378 0.088032655 0.08178318 0.10764129 -0.056065924 -0.05757258 0.11670159 0.031180888 -0.071506605 -0.052839626 -0.048096817 -0.0044770497 -0.018583743 -0.1190264 -0.02009928
house 0.079315245 0.035709146 -0.06316509 -0.13187839 -0.007535101 0.015780326 -0.0013257002 -0.047720894 0.020195674 0.0963817 0.04848265 0.060455553 -0.014869815 0.026346654 0.08634162 -0.025300158
night -0.010594997 -0.0075219963 0.028884782 -0.088324375 -0.04993421 0.0039567384 -0.0017216824 -0.037060503 0.041878346 0.00011670234 0.04167925 0.018326495 -0.0035848455 0.012300931 0.054373067 -0.027675146
during 0.026161443 -0.0133569725 0.06069173 0.01731417 0.00932047 0.013542529 -0.012763889 -0.008590517 0.01016236 0.013162858 0.052862074 -0.024726247 0.0070341784 0.028607264 -0.037563063 0.010091486
everyone 0.02548258 -0.04978081 0.003365927 0.027961366 -0.0027736533 -0.0037204595 -0.07519205 -0.014044656 -0.06515377 0.020224886 0.005217588 -0.0646809 0.0066245394 0.00696535 -0.021481913 0.0031087426
left -0.1055057 0.03370832 0.09959561 0.02552647 0.108555965 -0.057007026 0.006919891 0.037865095 0.07248692 -0.0320346 -0.14437857 0.06769651 0.08859223 -0.084912054 -0.11826407 -0.09527149
special 0.05495709 -0.027405992 -0.08207167 -0.0035008583 -0.078885846 0.060905635 -0.0063420357 -0.02229057 -0.0043839356 0.06467019 0.011122956 -0.059936807 0.016505975 0.08559119 0.023583028 0.026634436
seeing -0.021562666 0.011089885 0.118945375 0.03732949 0.10363919 -0.007357115 0.042314358 0.09097355 0.06436487 -0.09057217 -0.13851246 -0.013201278 0.002906606 -0.05997484 -0.07080824 -0.023247734
half -0.046622906 0.048202787 0.10851747 0.047542498 0.117747925 -0.06755361 -0.01638862 0.12489876 0.094521776 -0.070136875 -0.082366586 0.023568716 0.0926039 -0.07141496 -0.04248262 0.0012995204
excellent 0.15163113 -0.03561461 -0.108188756 -0.2217605 -0.21159452 0.18939939 -0.0139668025 -0.21703885 -0.12659994 0.21067877 0.18632342 -0.039350886 -0.07351695 0.21369642 0.23765583 0.084106244
wife 0.029606676 0.032909803 -0.028695371 -0.054326747 -0.13265723 -0.021762736 -0.039894186 -0.074766874 -0.02981425 0.05124328 0.08184595 0.048482705 0.016597893 0.004506002 0.02265317 -0.005515934
star -0.0219098 0.039122805 -0.03675659 -0.07526576 -0.052040275 0.029047273 0.040614933 -0.07398099 -0.04584812 0.009781027 0.03813608 0.0025957024 -0.0032769563 0.0376009 0.047718786 0.06019176
shot 0.07469927 0.010698927 -0.0889173 0.0020116635 -0.066855125 0.024991848 -0.06567402 -0.052478112 -0.011686087 0.06307234 0.015930546 0.06047566 -0.06554518 0.062038485 0.04564446 0.069131196
war 0.06274595 0.026339853 0.006855298 -0.059930492 -0.06557375 0.022328505 -0.00048958085 -0.051608972 -0.02211932 0.101309925 0.098534 0.08234971 -0.033126872 0.019491665 0.10342367 -0.028593197
idea 0.055446688 0.06942389 -0.059955206 -0.105224185 -0.081228904 0.11203384 0.012159001 -0.103456534 -0.038886867 0.020283552 0.07325415 -0.03468404 -0.04243937 0.07075998 0.06798468 0.011026678
nice 0.07478569 -0.019788545 -0.043008585 -0.17182314 -0.1420644 0.11330996 -0.041939847 -0.08351038 -0.107533544 0.09060593 0.09730792 -0.019108223 -0.030900745 0.11832894 0.034966987 0.012729058
black 0.036465317 0.010012516 -0.05281006 0.019292112 -0.051807195 0.048529338 -0.0041586645 4.440485e-05 -0.039744698 -0.025246471 -0.014985 -0.027968667 0.018986491 -0.034218814 -0.031299718 0.034563065
less -0.02493181 0.06379873 0.041220684 0.010346897 0.01822794 -0.03629355 0.08093332 -0.0090655545 0.007724721 -0.051692273 -0.010047484 0.071184576 0.058150295 -0.057350174 -0.033553917 -0.026025508
mind 0.077056125 -0.062326305 -0.037380353 -0.031315777 -0.084443495 0.043196637 0.0069947597 -0.044485074 -0.10296207 0.10295175 0.09854776 -0.09186787 -0.07612439 0.03524611 0.11333638 0.035594273
simply -0.045773245 0.019623382 -0.009066335 -0.020057041 0.056288704 0.01823773 -0.0041294233 0.067057855 0.0033991316 -0.07541478 -0.048827693 0.051019832 0.06646869 0.0093716495 -0.073987626 -0.071010165
read -0.050673023 0.023978325 0.056546044 0.090832755 0.12638524 -0.07802867 0.09363298 0.13270882 0.024978323 -0.10150956 -0.08988528 -0.067779236 0.094842136 -0.06670459 -0.10627913 0.03022405
second 0.06050187 0.026464539 -0.073840715 -0.08966368 -0.08274603 0.008378082 0.0062467046 -0.029840238 0.0058080354 0.052513734 0.14812866 0.024402855 -0.09945544 0.042921226 0.053876784 0.037409935
else -0.073385425 0.09305788 0.042258624 -0.04948704 -0.0064741923 -0.06080096 0.0015864058 0.037741296 0.040691875 0.041783795 0.026119012 0.0068988483 -0.01774292 -0.047120307 -0.02986065 -0.007728518
you're -0.011224108 -0.008485028 -0.017567875 0.046684515 0.07003302 -0.016081285 -0.024897465 0.079840034 0.012358845 -0.056492135 -0.054384455 0.010515172 -0.0028191116 0.011155651 -0.08349384 -0.0008168884
father -0.009103243 -0.007867592 -0.057232384 0.024422437 0.017360227 -0.023029735 0.008633877 0.05035167 -0.06336699 -0.005395305 -0.019076288 -0.025264401 0.013571741 -0.026197994 -0.043008007 0.04835308
fan -0.024610315 0.028844235 0.020897195 -0.074294284 -0.011673254 0.018334532 0.01137072 -0.07871004 0.058295064 0.0073329518 0.00018605142 0.013560626 0.047513448 -0.013425005 0.048037592 0.013901296
poor -0.024143418 0.060872424 0.0038044166 -0.06387496 -0.023410892 -0.07079659 0.017649874 0.0077950233 0.07459002 -0.07117287 0.00420209 0.03278751 0.07933121 -0.08904613 0.011604847 -0.06857636
help 0.066370524 -0.005672018 -0.016551789 0.006612486 -0.022548888 0.032415487 -0.0057692165 -0.03287739 -0.07317372 0.012996024 0.016641004 0.017656201 -0.05335814 0.03162683 0.038932502 0.03428983
completely -0.0051943823 0.068595 -0.012240128 -0.01002126 0.027012944 -0.025022719 -0.025050338 0.019475365 0.051718667 -0.035238717 -0.07186495 -0.01084076 -0.006154057 -0.06941037 9.056571e-05 -0.034908626
death 0.01733352 0.06254314 0.0038151492 -0.004244782 -0.03744563 0.014132186 0.057785057 -0.055642072 0.0028548662 0.09427186 0.023337271 -0.061519463 -0.011027428 0.04509121 0.013102559 -0.058807615
3 -0.0595053 0.06072529 0.16103496 0.22104256 0.17081569 -0.16194978 0.05692733 0.17084906 0.06271907 -0.16746855 -0.15088733 -0.084099606 0.08501422 -0.15049505 -0.17695165 -0.09505451
used -0.017927695 0.051808223 0.07404223 0.09550716 0.09332919 -0.09652127 0.043616597 0.12656233 0.08500028 0.02700702 -0.011585122 0.08415739 0.039279323 -0.014093881 -0.052603196 -0.021066055
home 0.07758115 0.020292131 -0.093011394 -0.14130363 -0.15959854 0.06165596 -0.0420644 -0.11944432 -0.008864072 0.14343694 0.09083501 0.07073327 -0.045666408 0.11918788 0.11555512 0.056365207
either -0.09945129 0.0039530452 0.084641606 0.043855213 0.06499209 -0.033840794 0.017232476 0.0523776 0.10369387 0.03786493 0.028328687 0.10177484 0.023836076 -0.0955522 -0.030995883 -0.06748099
short 0.013766772 0.039627872 -0.03894205 -0.081181265 -0.06734371 0.011806827 -0.0016298182 -0.0057680397 0.05757671 0.046726294 0.028649973 0.0033725866 -0.007838372 -0.011614767 0.0021135022 -0.036159117
line -0.039620448 -0.02934472 0.038908806 -0.0063498807 0.012530119 -0.07785771 0.03945953 0.0027033216 -0.004200938 0.026059268 0.028989036 0.0013131818 0.012112773 -0.016867973 -0.054463208 -0.051674996
given 0.026293272 -0.018010153 -0.07269867 -0.11733634 -0.1569018 0.12127027 0.02315017 -0.15608592 -0.07985645 0.08075663 0.15115367 -0.069862805 -0.027936727 0.11268628 0.1239468 0.012647919
men -0.030693961 -0.0121885585 0.028018624 0.04473814 0.022136524 -0.030692939 -0.03913519 0.02985945 -0.00895663 -0.085539505 -0.028026637 -0.05816111 -0.025701957 -0.043930884 -0.00045260333 -0.03435006
top 0.13925768 -0.09263156 -0.095989734 -0.09155132 -0.097698435 0.072890826 -0.05867776 -0.13265724 -0.068949275 0.11275515 0.14523321 -0.06969481 -0.13222358 0.077944905 0.15583953 0.10864269
dead -0.10309589 0.046790417 0.108649544 0.0935424 0.09615573 -0.08931875 0.056788713 0.06167457 0.1061933 -0.10486364 -0.06978657 0.000426666 0.07991535 -0.13006094 -0.09619025 -0.052697897
budget -0.12556973 0.088796444 0.15186584 -0.023937393 0.11038951 -0.13072293 0.08786166 0.031942938 0.079127885 -0.03581322 -0.08441573 0.06763824 0.06211645 -0.15021673 -0.065661505 -0.09896806
try -0.079379685 0.046341475 -9.851559e-06 0.048440855 0.042935096 -0.0787942 0.041493207 0.025176747 0.05142955 -0.03938986 -0.038395837 0.04886632 0.06141185 -0.028970728 -0.020433174 -0.013599098
performances 0.025713228 -0.069638744 0.016617041 0.11337765 0.0067139156 -0.01822885 -0.08805747 0.07438806 -0.09944081 -0.008418911 -0.031636454 -0.020633562 -0.030721689 0.06843193 0.028211137 0.07034507
wrong 0.05350841 0.02697701 -0.047535118 -0.024594342 -0.03652759 -0.0029086256 -0.073930226 0.004932993 -0.03084137 -0.027809627 -0.03577255 -0.027814865 -0.011221103 0.048886638 -0.036219683 -0.02132528
classic 0.18766588 0.10458595 -0.19402374 -0.16615315 -0.23566572 0.122016884 -0.057406303 -0.18510655 -0.067959204 0.17495531 0.16796724 -0.01153782 -0.17191407 0.21682757 0.15228637 -0.06299465
boring -0.044227645 0.12365243 0.034180123 0.017864408 0.14672555 -0.018349957 0.09843604 -0.072147116 0.087111115 -0.081110775 -0.08101847 0.0026831129 0.119732164 -0.03960275 -0.11752665 -0.12486331
enjoy 0.04730316 0.021779945 -0.034131188 -0.021300416 -0.051519055 -0.0153185725 -0.007879594 0.012257254 -0.005349881 0.041216496 -0.032843128 -0.03401359 0.022275746 -0.0078620585 0.0933736 0.025527203
need -0.071112104 0.056931093 0.04337737 -0.013026073 0.0013523869 -0.0072658365 0.05314959 0.039949454 0.016404688 -0.052984398 0.034950685 0.0134745315 -0.010812277 -0.012081004 -0.0049808337 -0.07172926
rest -0.05723006 0.08392968 0.093732476 0.09442271 0.109565385 -0.066847295 0.062900744 0.06562716 0.01612503 -0.07444128 -0.121896535 0.0092285825 0.07803474 -0.07430709 -0.05694544 -0.05425165
use 0.066436924 -0.028374095 0.014364282 -0.038916323 -0.0046057883 -0.018785011 0.055297468 -0.057760395 -0.044595234 0.07517048 0.0007416485 -0.04539258 -0.02137652 -0.01165556 -0.0011031207 0.03318188
kids -0.014796811 0.036018334 -0.029222308 -0.035162844 -0.051724635 -0.020708574 0.037827104 -0.047704093 -0.029979207 0.045176245 0.005115162 -0.03236816 -0.04420765 0.0032068794 0.0608386 -0.018474614
hollywood 0.0080395555 -0.0103152115 0.06991846 0.019343585 0.056568757 -0.016365191 0.030468049 0.07410593 -0.0072108023 0.009507104 -0.09719186 -0.007797718 -0.017021576 -0.062104374 -0.06270112 0.036249235
low 0.016085306 0.012265738 -0.011850094 -0.056625403 -0.09168148 -0.0038422537 0.029046152 -0.07204628 0.0025240527 0.026716629 0.08538207 -0.042048857 0.02990196 -0.004334444 0.03434793 -0.046819888
production -0.023538377 0.044357836 -0.031302627 0.041295107 -0.024018107 0.026895784 -0.03946203 0.006785846 0.0024077883 -0.03392873 0.016277825 0.042730223 0.0406789 0.0033810518 0.030264813 0.009633873
until -0.0060817613 -0.018961305 -0.007903532 -0.0865793 -0.057965748 0.035619058 0.01877464 -0.0224829 0.018618442 0.07193604 0.10672142 0.01540233 0.022897176 -0.004822304 0.090303175 0.020925663
along 0.037959516 -0.017698867 -0.060601108 0.06705281 -0.08004409 0.009501216 -0.06461762 0.0079874685 -0.05576173 -0.034738675 -0.08050941 -0.059884716 -0.016674656 0.08605902 2.6144335e-05 0.06807768
full -0.050983757 0.025859449 -0.012340742 0.02025455 0.022496872 0.004914404 0.1020589 0.03809297 0.09473717 0.056424297 0.034252573 0.03273351 -0.010159808 -0.0044393735 0.026569022 -0.03327253
friends -0.13468176 0.05616427 0.100557946 0.10896491 0.15889026 -0.12739885 0.15666658 0.1024914 0.07027778 -0.16422893 -0.122073546 -0.02557593 0.10241982 -0.14611615 -0.14736311 -0.066130586
camera 0.055634726 0.06104793 -0.034096945 -0.12785405 -0.09101842 0.014355251 0.042674728 -0.109203786 -0.06311375 0.12787926 0.041292224 -0.044750933 -0.03400845 0.06701261 0.14391384 -0.06315342
truly -0.033251196 0.017866326 0.096623175 0.13716449 0.20333566 -0.082694635 0.022336718 0.15193614 -0.001773336 -0.15553835 -0.11885619 -0.10227063 0.0530461 -0.114872456 -0.18568785 0.019982949
women -0.07899936 0.07858976 0.012979859 0.0058336942 0.073977746 -0.085039474 0.032901634 0.015180456 0.026920687 -0.10498573 -0.10926996 -0.059611153 0.063881285 -0.07610686 -0.12623589 -0.0672028
awful -0.13019735 0.06989371 0.17670475 0.118872866 0.26339406 -0.12387042 0.02410784 0.120615184 0.07895728 -0.21038428 -0.18619452 0.046844885 0.07653356 -0.20532043 -0.17432177 -0.080946535
video -0.04762809 0.0800756 0.0040239384 -0.09445881 -0.13504106 0.009715706 -0.020641565 -0.04922678 0.08130636 0.09652811 0.024450788 0.10753883 0.0018796955 0.06258343 0.09104248 -0.07120764
next 0.0015718183 0.014189037 -0.04467014 -0.09025568 -0.07082463 0.019954238 0.0018515218 -0.007649235 0.05499382 0.08478293 0.086630955 0.030942405 0.015306806 0.03806129 0.0757632 0.02900591
tell -0.05591703 -0.017862491 0.056950632 0.08727455 0.08376891 -0.036884688 -0.03733377 0.06918311 0.045562893 -0.100729086 -0.06756887 0.020223362 0.024200385 -0.025079021 -0.096204385 -0.020687843
remember -0.038055576 0.01836536 0.046898518 -0.034512814 -0.06062377 -0.049912773 0.07468522 -0.042702004 0.028034192 -0.030834341 -0.024569992 0.012898715 0.019331021 -0.026896952 0.011260056 -0.03751285
couple 0.029409157 -0.03310303 0.005281241 -0.020204246 -0.04760398 -0.020100832 0.031558923 -0.018069461 -0.028102295 0.06602945 0.024362983 0.057102747 -0.027294878 -0.043334465 0.047162592 0.0060474463
stupid -0.085788704 0.0628335 0.05279225 0.031993497 0.08190871 -0.034389783 0.033911858 0.046717644 0.0778353 -0.024781656 -0.0017229493 0.08093314 0.06365755 -0.09548193 -0.02516921 -0.022222456
start 0.008398057 0.01858611 0.104454346 0.10188526 0.14298168 -0.08491229 0.04139572 0.10588457 0.0075107953 -0.07137562 -0.10613303 -0.019599538 0.021872506 -0.122424796 -0.10860308 0.011719599
stars -0.042185474 0.015266189 0.082094096 0.124562204 0.10756094 -0.10636105 0.03961479 0.041764576 -0.011122717 -0.09351016 -0.18181223 -0.06376 0.090269394 -0.12198364 -0.08784996 -0.04324639
perhaps 0.01991796 -0.044223975 0.007879995 0.02482525 0.023305152 -0.004976054 -0.05990741 0.071550734 -0.059739772 0.03438909 -0.032207385 0.011340117 -0.07376786 -0.0018517206 0.04363001 -0.009190803
sex 0.04757571 0.0325017 -0.050489448 -0.10803082 -0.03992226 0.038366403 0.006727008 -0.0717882 -0.053355485 0.13488768 0.09583928 -0.01676658 -0.023996305 0.07719729 0.11691093 -0.032788645
mean -0.009329585 0.025170978 0.016282056 0.05884847 0.021701407 -0.083605 0.016892081 0.033199415 0.09085453 -0.047307637 -0.11952057 0.0021720252 -0.0020761609 -0.02003051 -0.06623798 -0.03408272
came -0.064403094 0.0362522 0.051046524 0.012084961 0.10056052 -0.03451795 -0.029150998 0.028556187 0.038507633 -0.050969686 -0.013290873 0.06544484 -0.005526522 0.0042794934 -0.04773795 -0.04756547
recommend -0.0065858993 -0.058002226 -0.023496239 0.012960924 -0.00284709 0.008827615 -0.04150569 -0.028807746 -0.051840566 -0.0012586222 0.026083149 -0.0030539504 0.020318199 0.0536087 -0.004382817 -0.025815303
let 0.009035814 0.022870148 0.019347137 -0.03069622 -0.06422147 0.0148902945 -0.0032607978 0.016589941 -0.024610933 -0.007200683 -0.036202062 0.008343924 -0.016045853 0.01583107 0.06001182 -0.018397497
moments -0.03711494 0.025484644 -0.026945988 -0.0043424545 -0.019894838 -0.026952352 0.041533187 -0.029982325 0.016263148 0.042245414 -0.036229882 -0.008391508 -0.0076261414 0.052352283 0.0245375 -0.062841006
wonderful 0.047037713 -0.04519002 -0.090645164 0.0039612814 -0.0990774 0.064422466 -0.050582748 0.0060680294 -0.08574306 0.07483461 0.029893605 -0.0136648 -0.08181292 0.11765496 0.04605484 0.06449591
episode -0.06710402 0.020235054 0.05413667 0.120074436 0.13984586 -0.08892952 -0.01082178 0.09617885 0.06765729 -0.050951514 -0.05690406 0.015974788 0.10903321 -0.061608184 -0.10993053 -0.022971105
understand 0.0050658905 -0.053715743 0.0034964208 0.010879386 -0.011083895 0.043915667 -0.03185098 -0.07152328 -0.00411328 0.09084679 0.08139103 -0.030225478 -0.04123261 0.0099820895 0.043501113 0.010865465
small -0.067813106 0.07745413 0.05961606 -0.006907598 0.09171768 -0.08293467 0.109083176 -0.052288506 0.08938292 0.020015748 -0.0064796684 0.10296628 0.07730628 -0.06642206 0.011534968 -0.1053995
face 0.0841704 -0.045335133 -0.035752535 -0.08202732 -0.034419104 0.06210146 -0.05737115 -0.07907109 -0.08556913 0.08989585 0.060986098 -0.008071211 -0.07754719 0.032384966 0.11605951 0.0667998
terrible -0.10887157 0.002083057 0.10278163 0.09460061 0.108258076 -0.102937624 -0.004304908 0.08721449 0.0623771 -0.1447085 -0.16847138 -0.0044123773 0.03306519 -0.09600898 -0.1704507 -0.08240096
playing 0.030579837 0.006682638 -0.09176397 0.0023011165 -0.07925967 0.016170802 -0.088700965 0.055206344 0.0036999406 -0.057201803 0.02296984 -0.02714276 -0.060645796 0.016430566 0.034554206 0.071441196
school -0.08366362 0.021252623 0.058130383 0.11469158 0.17872408 -0.11230362 0.0042738165 0.09915719 0.0897101 -0.093638636 -0.11575362 0.0078983735 0.056697074 -0.11593055 -0.14919628 -0.06759372
getting 0.0785775 -0.002801904 -0.10976449 -0.06040185 -0.15368302 0.01771026 0.0019300161 -0.12120919 0.031430397 0.050597537 0.13656537 0.00954717 0.008314592 0.09102742 0.15687788 0.007087767
written -0.04179361 0.016245492 0.058564555 0.054240134 -0.000822137 0.021687746 0.017161401 0.0022725235 0.053844724 -0.07565123 -0.028516643 -0.00306369 -0.046711087 -0.044075068 -0.02311168 -0.009866025
doing 0.06527938 0.047603857 -0.025669105 -0.023456456 0.00976454 0.08077511 -0.028494913 -0.01500604 -0.05379004 0.005809679 0.017604787 -0.0106121795 0.05513122 -0.01502276 0.015105645 -0.050542034
often 0.13437758 -0.07524646 -0.17321822 -0.069173224 -0.16240597 0.08948968 -0.08428584 -0.12473442 -0.075325474 0.122384906 0.10702897 -0.034361396 -0.068428196 0.08725958 0.11381042 0.048736013
keep 0.020578312 0.001896716 -0.018062474 -0.027696144 0.047782008 -0.013814043 0.019893821 -0.011620914 -0.020676048 -0.07252422 -0.05258268 0.016858691 0.06855891 -0.0069729043 -0.027327327 0.013583157
early 0.03329615 -0.016113572 -0.018588414 0.048992794 -0.041188333 0.05384438 -0.053997107 0.013016145 -0.04592561 0.010642063 0.021924928 0.019122133 -0.06446256 0.006241256 0.004515922 0.057795215
name -0.09234731 0.11465604 0.06692265 -0.0489582 0.024390347 -0.04108213 0.072240785 -0.02279234 0.037998233 -0.0009700095 -0.093298234 0.033666182 0.054550067 -0.022357618 -0.03711527 -0.07390978
perfect 0.13306172 -0.011068961 -0.13227108 -0.01784937 -0.15665007 0.11011431 -0.009019255 -0.059417404 -0.051303405 0.117509454 0.09984668 -0.06961233 -0.06535823 0.06598427 0.07628149 0.072476804
style 0.066542715 0.027546935 -0.098597474 -0.06560104 -0.05237204 0.044720605 -0.012789677 -0.053655535 -0.04640916 0.11622152 0.11675984 -0.00798479 -0.03272591 0.082580395 0.16321938 0.029891308
human 0.003962974 -0.013110874 -0.05320636 -0.068251155 -0.060466334 -0.03130997 -0.028551387 -0.06879728 0.004320571 0.04367233 0.0019814412 0.012751738 0.0041980795 -0.0045815683 0.013713393 -0.032942068
definitely 0.05680892 -0.009870037 -0.038349327 -0.11195004 -0.07091417 0.065490924 -0.018603837 -0.105922826 -0.060676094 0.07200149 0.09104361 -0.06443319 -0.074628145 0.035989426 0.030664787 0.07694511
gives 0.036775906 -0.062054817 -0.09384577 -0.018082896 -0.0701878 0.09261207 -0.07218224 -0.036961153 -0.044329472 -0.0065717273 0.041377094 -0.045189783 -0.039131034 0.05601716 0.060831163 -0.0062376754
others -0.08656782 0.0142223975 0.13346213 0.07926299 0.11909714 -0.0704344 0.086610965 0.06422862 0.07197955 -0.09143622 -0.06802051 0.02875065 0.11752137 -0.111907616 -0.10317898 -0.068964854
itself -0.14695166 0.040815577 0.1308903 0.13191189 0.19448271 -0.065732725 0.08745276 0.10912553 0.099136606 -0.18361211 -0.21353143 -0.0016112885 0.14675798 -0.15857175 -0.1676877 -0.08124747
lines -0.003671866 -0.05604658 0.0029628698 0.027317882 0.07596177 -0.06252242 -0.055122983 0.08544707 0.020009689 -0.10995633 -0.076613 -0.014866944 -0.008615459 -0.05325186 -0.006967106 0.027313216
live 0.025996752 -0.039229285 -0.08458893 -0.035924204 -0.13380499 0.013178925 -0.09914597 0.046246115 -0.088016085 0.074516416 0.022979496 -0.086100906 -0.047345348 0.028068684 0.028601732 0.067092285
become 0.01935756 0.041185178 0.00921145 0.017228566 -0.026859144 -0.011233035 -0.034040805 0.0063320524 0.018848533 -0.085010394 -0.0018298969 -0.052973114 0.0023208833 0.035431564 -0.06753292 0.035278745
dialogue -0.022170346 -0.010168939 0.009960907 -0.01858431 0.001200653 -0.020111537 0.033728417 0.007622142 -0.052371953 0.069998726 0.065810814 -0.05065554 -0.040674187 0.056477707 0.003543589 0.005405877
person -0.018859968 -0.032259725 0.038503595 -0.023545746 -0.0439605 0.024938969 -0.01782403 0.03373614 0.021872057 -0.02919623 -0.046841707 -0.024081899 0.040130254 -0.0024742652 -0.024540892 -0.038800396
lost -0.027148785 0.044482294 0.024592115 0.042103183 -0.05135933 -0.07501126 0.037501715 -0.043439593 0.066216655 0.070701964 0.05092379 0.07108665 -0.05005269 0.021265399 0.05248278 -0.06858921
finally 0.04506699 -0.0073311473 -0.044770207 -0.0075017186 -0.093369305 -0.028044151 0.0070543964 0.022958912 -0.0148165235 -0.0026925553 -0.024879571 -0.012946629 -0.00952265 0.025060032 0.017969366 -0.019508269
piece -0.05571291 0.032051332 0.06844195 0.0009214932 0.20893884 -0.07677371 0.06722781 0.046897464 0.13678505 -0.019070264 -0.040731065 0.052253295 0.13040668 -0.14513639 -0.0907728 -0.044397324
head -0.15996888 0.11085009 0.18295698 0.18100631 0.23712483 -0.18282235 0.11906152 0.14318635 0.12289095 -0.13196132 -0.20205028 0.023825184 0.13188353 -0.12573126 -0.12621827 -0.0980228
case -0.09530659 0.05071164 0.13245222 0.12432213 0.16114508 -0.00487617 0.11602576 0.093311 0.07233321 -0.18115245 -0.18098569 -0.021315841 0.13395335 -0.11713608 -0.108202025 -0.02872452
felt 0.053957008 -0.036103405 -0.040144704 0.01401104 -0.06631422 0.04356791 0.0074380194 -0.004576285 -0.042445 0.06585989 0.06710919 -0.0035891845 -0.06090947 0.024239283 0.037548013 0.06703352
yes 0.040448442 -0.0036616572 -0.07530356 0.0072131734 -0.035569586 0.041614313 -0.009901327 0.020434462 -0.034635324 0.047364496 0.02533146 -0.009520097 -0.002197519 0.051216085 0.03641379 0.07828653
liked 0.06852315 -0.02550476 -0.09915342 -0.03268833 -0.11740111 0.12232776 -0.045011688 -0.06891421 -0.08573192 0.032318003 0.00020292737 -0.023229858 -0.033792276 0.111287445 0.056733027 0.12680992
supposed -0.10306297 0.040000986 0.13890596 0.0119272 0.20427428 -0.15872493 0.10242255 0.09245819 0.12328688 -0.07062286 -0.10304538 0.11976202 0.06301214 -0.17111436 -0.059610482 -0.12152224
title 0.022085333 0.05608918 -0.021462973 0.0033462697 -0.020764576 -0.0069370414 0.025951765 -0.0356721 0.0653424 0.039578993 0.03130936 0.069947556 0.04228518 0.009641215 0.050424144 -0.04975266
couldn't -0.033374976 -2.9500568e-05 0.061853983 0.03658504 0.047004305 -0.07720039 0.0493886 0.020076167 0.0049500903 -0.05838533 -0.06136394 0.058634683 0.016955206 -0.028452452 -0.06322476 -0.029450513
absolutely 0.03264178 0.0617903 0.0006641192 -0.055735838 -0.019212125 0.007940395 0.06727346 -0.068471506 0.050030366 -0.0012572586 0.010446043 0.0042275884 -0.0002836381 -0.024986967 -0.01613744 0.009774434
white 0.09276054 -0.0070065157 -0.096128024 -0.017596079 -0.07867029 0.10018347 -0.08675565 0.05192334 -0.03430923 -0.014848581 -0.015213439 -0.06842838 -0.009948435 0.055618726 0.07973037 -0.014804455
against 0.073650055 0.0051497337 -0.081124105 0.059457064 -0.10370847 0.009552798 0.0017540166 0.09092284 -0.028239936 -0.07612224 -0.011785106 -0.033368945 -0.021174964 0.032529496 -0.0020609938 0.024377625
boy 0.017601663 -0.06747659 -0.06761417 0.08433122 -0.060008407 0.100899786 -0.035969585 0.009046987 -0.08412587 0.05898435 0.0063042273 -0.0864307 -0.07346558 0.09547095 0.010753001 0.04518042
picture -0.023140587 -0.005223256 -0.02015761 0.03389614 0.059199713 0.04682514 -0.011875328 0.017520504 -0.026691874 -0.04072682 0.02034248 0.01853877 -0.018624736 -0.02620502 0.001336965 0.07027521
sort 0.056753177 -0.06545693 -0.08719728 -0.0047905236 -0.054280933 0.016422696 0.016891122 -0.06066194 -0.020370293 0.017898647 0.06362947 -0.022873867 -0.08297394 0.09314045 0.040425852 0.0067965416
worse -0.04767707 0.10810602 0.054339368 -0.058593594 0.016527822 -0.08807098 0.09869086 -0.061002508 0.08745151 -0.063669294 0.0077361134 0.03402966 0.10310397 -0.096976854 -0.022794833 -0.09830837
certainly 0.08572018 0.04179495 -0.1062005 -0.1366958 -0.14317416 0.078565285 0.0004666008 -0.09949223 0.0070577227 0.02682527 0.09401592 -0.019370595 -0.011336431 0.08079398 0.03553555 0.029656418
went 0.018328946 -0.039620314 0.021855371 0.06073303 0.13210377 -0.08182484 -0.059165273 0.050598744 0.010956589 -0.1231571 -0.1357129 -0.052638743 0.061959773 -0.078252584 -0.093027 -0.020649746
entire -0.08287517 0.07771123 0.010041153 -0.106819086 0.04217112 -0.09084813 0.08835715 -0.080432855 0.09791126 -0.03877323 -0.0024383187 0.077967696 0.07987994 -0.013324661 0.039030056 -0.10099509
waste -0.2879876 0.07413111 0.27461782 0.15558584 0.31840968 -0.22470692 0.11964276 0.23071973 0.1728126 -0.21653256 -0.20246391 0.07985246 0.22032985 -0.22953978 -0.2551853 -0.19573645
cinema 0.014442529 0.07155015 -0.0020905198 0.04655727 0.08898506 0.08410544 0.08176539 0.044491168 0.062340308 -0.06292213 -0.07805302 -0.011742062 0.082822874 -0.06362627 0.015834922 -0.07891411
problem -0.023400018 -0.06535123 0.010956558 0.04392172 -0.05549833 0.011639925 -0.052693635 -0.027870487 0.027862374 0.011700523 0.0050983424 0.007729728 -0.0426272 0.043875236 0.0048694476 0.024751207
hope 0.038595453 -0.03275828 0.04032887 0.07081077 -0.043278445 0.009174761 -0.05485869 0.021050185 -0.0133606745 -0.060537945 -0.041373357 0.005971385 0.046536718 0.009785893 -0.050313216 -0.041271955
entertaining 0.02676093 0.0019112215 0.023742743 -0.0072654425 0.037556257 -0.023262775 -0.0023317277 0.04050303 0.0007777404 -0.014979474 -0.04516492 -0.008539001 0.05003667 0.008510982 0.0027489574 -0.06029196
she's -0.032661386 -0.029495485 0.029521003 0.09928987 0.10988325 -0.02200756 -0.016501877 0.063480854 0.017955303 -0.114701696 -0.050897613 0.028427651 0.0066135125 -0.10838504 -0.099452086 -0.034443237
mr 0.059839636 -0.014373877 0.00033609453 0.04394424 -0.018271863 0.031376764 -0.07145278 0.024079397 -0.0303242 0.013755405 0.04482192 0.042513266 0.0006417477 -0.0072122216 -0.006667134 0.052599397
overall 0.025048148 0.00048697327 -0.010569011 0.057977103 -0.015425809 0.013608795 -0.062412646 -0.0041382434 -0.017546762 -0.011189677 -0.06993263 0.031818736 -0.02245724 -0.02884682 -0.039828103 -0.028592
evil -0.0038676984 -0.036023654 -0.038501635 -0.01627591 -0.024378806 -0.032058045 -0.035714578 0.010404972 -0.02541139 -0.051561132 -0.053515237 -0.04653186 0.010423414 0.03765616 -0.05908546 0.010049112
called -0.00884454 -0.023423573 0.016919143 0.08262758 0.026838766 -0.052587572 0.023452627 0.048280798 0.04374235 -0.11271426 -0.117870994 0.03129053 -0.021014722 -0.059422422 -0.08322628 0.008335554
loved -0.044714928 -0.047634743 0.080242835 0.15614282 0.18088609 -0.10146955 -0.03786092 0.10208629 0.028262988 -0.061407797 -0.12813939 -0.0619551 0.06522767 -0.09778666 -0.13725154 0.03058911
based 0.039776213 -0.05498161 -0.0027855786 0.02806434 0.041290425 -0.02606645 -0.03260067 0.09961459 0.010304786 -0.06471272 -0.06526869 -0.06537414 -0.05319209 -0.06705103 -0.054135956 0.08617231
oh -0.10095085 0.047264826 0.09002658 -0.06252161 -0.045994245 -0.09073451 0.026419317 -0.008409504 0.08926468 -0.007814493 0.018169481 0.022992576 0.096929766 -0.10042382 0.009295809 -0.09551628
several 0.021511132 -0.020467287 0.04759433 0.012179024 0.050033465 0.0047117975 -0.010210413 0.042520884 -0.031182405 -0.0015636453 -0.012934414 -0.013471366 -0.010574037 0.019392068 -0.043565292 -0.033621028
fans 0.042171318 0.038032494 0.053744674 0.111892305 0.1095292 0.019371497 0.052701585 0.047510415 0.050811037 -0.15053329 -0.15348841 -0.06928329 0.13046019 -0.10327516 -0.09393052 0.010425993
mother 0.0007472313 0.050216608 -0.105445385 -0.1109371 -0.11181103 0.071429886 -0.0048055947 -0.09385204 -0.058072034 0.088929825 0.060641542 0.0791216 -0.01279025 0.064670734 0.12798475 0.004840378
drama 0.038979843 -0.11173039 -0.009925873 0.096261084 0.077787876 -0.026905766 -0.027317634 0.0678324 -0.007600558 -0.07610281 -0.089465186 -0.03349499 -0.021493508 -0.041356876 -0.06447082 0.07666293
beginning 0.012634486 -0.05196912 -0.08245133 0.008886397 0.009486771 0.095758535 0.0087185595 -0.026974626 -0.069507554 -0.01195196 -0.027291574 -0.055073168 -0.020414805 0.019402828 0.02718108 0.08716814
killer -0.07942494 0.0795922 0.029133894 -0.025582977 0.053725563 -0.036772512 -0.0023400004 0.01046404 0.08586306 -0.060457967 0.015677063 0.019244842 0.015998103 -0.009086011 -0.0147506315 -0.029398043
lives 0.0022380885 -0.051447343 0.008028638 0.08505012 0.04653743 0.048374183 0.029867979 0.057412986 -0.03204871 -0.043141473 -0.07191601 -0.056958478 0.044248413 0.031063134 -0.057229884 -0.008776534
5 0.0031313442 -0.015640698 -0.05472459 -0.037796676 0.011604853 0.059252284 0.02713037 0.0056291674 -0.031810466 0.018091202 -0.007508174 -0.012733548 -0.030224616 0.0070033385 -0.0071986495 -0.021430477
direction -0.057278566 -0.030229844 0.094037175 0.11533857 0.16716073 -0.010552043 0.10146335 0.05686974 0.004885018 -0.09981452 -0.08272135 -0.022356048 0.048431005 -0.10337361 -0.1287362 0.019215658
care -0.04397621 0.026659159 0.030351648 0.025709905 0.09594841 -0.06566773 0.11543438 0.087836646 0.014518586 -0.018477764 -0.06142643 0.07563805 0.040871922 -0.083933756 -0.00065242685 -0.1028777
already -0.03539977 0.012578713 0.07811896 -0.054916445 0.046463568 -0.055787753 -0.013546704 -0.016067725 0.036578503 0.0067070867 0.037620056 0.10453349 -0.007158317 -0.06391741 -0.024289103 -0.062269315
becomes 0.015637929 0.018372199 -0.034978896 -0.12245053 -0.087718636 -0.013379293 -0.037324343 -0.017433058 0.003134542 -0.0020723762 0.067419924 -0.031899985 0.0016895166 0.0566231 0.03275928 -0.019966176
laugh -0.091684006 0.0851088 0.11819756 0.09179842 0.1252506 -0.10282321 0.05568322 0.061459336 0.10516153 -0.090118855 -0.068631664 0.05585395 0.05578188 -0.14667648 -0.10340219 -0.093444
example 0.019177642 -0.02979371 -0.023483612 -0.014433675 -0.1488739 0.0078931 -0.0633381 -0.046212185 -0.0022877885 0.05789725 0.04568149 -0.058547236 -0.022893706 0.105513126 0.13151774 0.026890727
friend 0.1581135 -0.03277517 -0.10744292 -0.124737605 -0.17012337 0.117750265 -0.06592072 -0.18922469 -0.09718558 0.18916863 0.15385646 0.06054728 -0.09467048 0.1853938 0.1662735 0.10070092
dark -0.08432936 0.0019337947 0.042967007 0.1471129 0.13303639 -0.07153529 0.03266483 0.045040444 0.08977335 -0.057381425 -0.064922154 0.003648824 0.008560237 -0.069460236 -0.061304603 -0.0058282586
despite -0.018596068 -0.000113478614 0.067396216 0.09180899 0.13571693 -0.08920382 -0.014200733 0.11758176 0.019742811 -0.05396414 -0.084133185 -0.0012648749 -0.037964888 -0.09585604 -0.08698152 0.023171704
under 0.09689539 0.0046695946 -0.10088806 -0.06767919 -0.115261175 0.10558723 0.040762074 -0.12128641 -0.062438507 0.16149113 0.1579361 0.009752593 -0.039477758 0.14862953 0.11775535 0.061830092
seemed 0.07318878 -0.084888674 -0.0019360092 0.042161394 -0.01777952 0.024463248 -0.04951514 0.03707011 -0.079061285 -0.059081525 -0.026790071 -0.01663255 -0.015645972 0.036644097 0.007807655 0.029898608
throughout -0.047003042 0.037338175 0.053611673 0.057510506 -0.018935425 -0.02595825 0.05589616 0.025511054 -0.030077528 -0.028775213 -0.0360589 0.03516074 -0.042631302 0.0023237409 0.013054343 -0.035074014
4 -0.13403286 0.03607246 0.22665149 0.30045244 0.28540713 -0.18223478 0.06924431 0.20704354 0.08505097 -0.21993774 -0.27042067 -0.15712829 0.2197876 -0.23159328 -0.30989423 -0.12926662
turn -0.054280348 0.024826739 0.03788409 0.038221743 0.07661453 -0.041285276 0.035058953 -0.031613864 0.0616734 -0.024571951 -0.025854949 0.08024135 0.05618722 -0.038833816 -0.079621054 -0.10731104
unfortunately -0.042329386 0.027887998 0.030982362 -4.0723535e-06 -0.015091088 0.0038076853 0.039064985 -0.047865525 0.039237462 0.02975034 0.03997903 0.023004742 0.024313927 0.015903955 -0.039357215 -0.04835216
wanted -0.037014715 0.010491721 0.06267924 0.09493242 0.14940435 -0.0126600815 -0.041620556 0.12559994 0.04853395 -0.07076867 -0.06854025 -0.06764549 0.03253037 -0.0100806765 -0.049203936 -0.0011024968
i'd 0.05502791 -0.08026043 -0.08242341 0.020505056 -0.09244606 0.035711132 -0.064043365 0.04851011 -0.09518382 -0.011871442 0.035548545 -0.022056237 -0.083937645 0.08494483 0.020373924 0.069966264
 0.071838915 -0.016612321 -0.020380937 -0.111276366 -0.084062025 0.07241868 0.038841914 -0.12134762 -8.572082e-05 0.10199951 0.053381737 0.036962673 -0.05819984 0.023918163 0.028475413 0.023390913
children 0.035575468 0.018784072 -0.08414947 -0.015052985 -0.09244798 0.06676584 -0.03209554 -0.0018785709 -0.108823225 0.12219891 0.030465716 -0.04122536 -0.06700483 0.018933212 0.13234438 0.00072106865
final 0.066201955 -0.053824164 -0.05557796 -0.05808273 -0.049821127 0.04675014 -0.0694192 0.019626454 -0.02085621 0.061312918 0.0438574 -0.08447573 -0.09429217 0.06624627 0.027258005 0.012757636
fine 0.098515816 -0.06262976 -0.07812871 -0.0042969305 -0.10209525 0.08383367 -0.11442117 -0.059300765 -0.11243628 0.17991321 0.13252187 -0.08555173 -0.053049903 0.08694885 0.2438362 0.060468365
history 0.022123916 0.008887008 0.05743736 -0.059002098 0.022176052 -0.059837285 0.052149072 -0.019848619 -0.03016714 0.026067182 -0.009606554 -0.035106894 -0.00033265597 0.006693018 -0.0019807096 -0.06075741
amazing 0.06966725 0.030187491 -0.1047449 -0.16347821 -0.14218593 0.09285435 0.027606321 -0.13584518 -0.06050601 0.23266868 0.18952209 -0.038163885 -0.030236514 0.1035178 0.26025054 0.010648251
sound 0.033152312 -0.037426293 -0.1300031 -0.04999535 -0.15211894 0.12660782 -0.037131328 -0.10879486 -0.04597499 0.10425442 0.050223026 0.01407794 -0.09769054 0.093269736 0.10089005 0.086102195
guess -0.13492857 0.045369063 0.1927104 0.04162631 0.20938455 -0.16816834 0.15741353 0.057919838 0.14954475 -0.12406532 -0.06362457 0.06738134 0.14562652 -0.17149782 -0.17069624 -0.10404971
heart 0.053214412 0.051781036 -0.09120988 -0.12574062 -0.19656458 0.041320007 -0.03545515 -0.14499654 -0.02173086 0.17085984 0.1512385 0.052064724 -0.023357892 0.07684585 0.178046 0.0062337075
totally -0.021584002 0.05219315 0.019382969 -0.08452288 0.02304499 -0.05368992 0.023153722 -0.05562176 0.058239594 0.04482942 0.042548712 0.04996679 -0.01555906 -0.026094807 0.081143916 0.008563202
lead 0.07237355 -0.036496118 -0.023615127 0.012167096 -0.021031624 0.049338844 -0.01102432 0.06882566 -0.07539132 0.03418196 -0.00622456 -0.07715564 -0.07160183 0.09847119 0.078954615 0.041561738
humor 0.1092337 -0.030173248 -0.05098589 -0.12455489 -0.14213811 0.07353945 -0.071992286 -0.10563265 0.0038912785 0.15569086 0.18155774 0.06011748 -0.099736325 0.14568628 0.13882126 -0.0033017471
writing -0.007948601 0.009964811 0.053702723 -0.063340925 0.06767925 -0.07884911 0.07636663 -0.062229563 0.034700662 0.011658736 -0.013554184 0.07910754 0.012231774 0.007716777 -0.028892213 -0.048207976
michael 0.08923631 0.00874743 -0.07563932 -0.04889894 -0.099068776 0.10214282 -0.009593558 -0.104540244 -0.09781984 0.08748624 0.011457899 -0.010061084 0.0030038208 0.079254806 0.09677833 0.0050927442
quality 0.017632896 0.025834827 -0.031490996 -0.07393806 -0.05443595 0.07493495 -0.01857096 -0.020246249 -0.032276787 0.14364123 0.117229156 0.004385515 -0.08460468 0.10470367 0.07531006 0.025939401
you'll 0.05201349 0.012689111 -0.03208692 -0.0007472748 0.05927904 0.03752267 0.051943965 0.01916737 0.012416926 0.063620426 0.0044329073 0.060297117 -0.029568825 0.0050415937 0.04179844 -0.056122616
close 0.08275298 0.06756695 -0.15514809 -0.25135252 -0.2289553 0.15690221 0.01529014 -0.16168647 -0.013072421 0.16161154 0.2637519 0.020655164 -0.07211062 0.20647956 0.25373608 0.02238312
son 0.014335979 -0.0656814 -0.00765112 0.03974829 -0.053502135 0.04958861 -0.008952324 -0.015724491 0.011254664 0.07513988 0.034690954 -0.012965129 -0.0010251004 0.031538688 0.020882322 -0.0058039287
guys 0.055163965 -0.03340606 0.00814842 -0.025774354 -0.08028642 -0.020019896 0.036818936 -0.01949008 -0.019858902 -0.037966818 0.041911297 -0.0074905674 0.047390908 -0.015556372 0.017050114 -0.019142024
wants 0.06328221 -0.046933305 0.001793499 -0.016699499 -0.055679165 0.05306049 -0.038034305 -0.012605918 0.009870233 -0.013371052 0.039959673 0.0077067125 -0.020960495 0.062662326 0.008854918 0.054319493
works 0.09112585 -0.039591294 -0.054086782 -0.14856578 -0.09645481 0.036315247 -0.008089168 -0.052548192 -0.057556804 0.10815006 0.06189833 -0.00556285 -0.08482692 0.10949873 0.100989796 0.08569453
behind -0.07926183 0.06310656 0.10726115 0.0625345 0.053342056 -0.091175854 -0.008003071 0.09646317 0.014429294 -0.060245313 -0.12543994 -0.023055665 0.010327809 -0.059331007 -0.032478962 -0.072992675
tries -0.00013629385 0.023433113 0.059375327 0.018694034 0.079831235 -0.052029166 0.05041114 0.07934547 0.0015645426 -0.03402332 -0.066928804 0.03957865 0.06047452 -0.02268102 -0.030046457 -0.057266843
art -0.09250477 0.004220259 0.13718763 0.13965055 0.17672011 -0.1257423 0.093850665 0.16328062 0.11050486 -0.11734293 -0.09361316 0.049646806 0.06924513 -0.11592338 -0.15418346 -0.071080774
side 0.060010083 -0.09992461 -0.05325272 0.051549282 -0.10834887 0.06889389 -0.07295004 -0.026864577 -0.08256149 0.037637472 0.038630903 -0.028006218 -0.05442371 0.085398816 0.08145612 0.048725825
game 0.029270455 0.013360339 -0.034330133 -0.00086692726 -0.007224124 0.012632191 -0.057561252 0.032374732 -0.06263249 -0.031935968 -0.02206596 -0.04682112 -0.041627638 0.05507084 0.010620906 0.027329115
past 0.019471908 -0.05658031 -0.049546972 0.09458478 0.044331912 -0.026516223 0.012230974 0.04540695 -0.059241824 0.00607494 -0.060640287 -0.014821129 -0.046387423 0.041801482 0.019049212 -0.011316584
able 0.015290566 -0.06141514 0.006574101 0.046037827 -0.06481977 0.034939535 -0.048863783 0.014812951 -0.012470179 -0.036644552 0.0033842106 0.009213587 0.0018028539 0.025835335 0.03354879 0.063843384
b -0.0032735309 -0.00026368056 -0.05120937 -0.08099261 -0.066827565 0.0874277 -0.039384168 -0.02184743 -0.016380712 0.07153897 0.025949694 -0.040439896 -0.08794462 0.013401383 0.104877554 0.037412547
